Song_Sparrow 0.00026464433 0.12289595 -0.01828115 0.014768111 -0.02532437 -0.084780045 0.070996225 0.21550936 0.0061145923 -0.068315715 0.06651872 -0.023585575 -0.02497087 -0.06221102 -0.051996075 -0.03953662 0.082297154 0.018852558 -0.014345428 -0.0192055 -0.054976385 0.00045093565 0.09331819 0.01902498 0.046866767 -0.022835456 -0.12664777 -0.03435507 -0.034971185 -0.08409072 0.048447363 -0.033405352 0.016973091 -0.012985976 -0.04184529 0.039922874 0.023215 -0.0671077 -0.027706956 -0.000118820084 -0.023070544 0.011463415 0.005723842 -0.08856193 0.022517767 0.10200582 0.060670577 0.008909664 -0.021554243 0.05045559 0.018377114 0.002144017 -0.03221849 0.020180672 -0.052429892 0.1334783 0.05008019 0.02858691 -0.016559536 -0.003410266 -0.0532347 -0.082944594 -0.010057667 0.015137426 0.0038207292 0.062104184 0.07076794 -0.027559547 -0.09506006 -0.024524713 0.025847696 -0.008216852 0.0701448 -0.08017031 -0.0053707557 0.047073137 -0.06669368 0.019200016 -0.042345293 0.14360744 -0.045553647 -0.115896285 -0.0041277907 0.17550397 0.008196379 0.02460216 -0.0877367 0.052440237 0.109765925 0.038712632 0.15670584 -0.029360194 0.0038780617 0.0047882316 0.09822301 0.12102746 0.060816687 -0.029733894 -0.026033426 0.039979473 -0.03579323 -0.0022687423 0.05513791 0.015903898 0.040436227 -0.077975936 0.020079222 -0.014662687 -0.08816742 0.05452954 -0.11947578 0.019602848 0.031313207 0.060878277 0.02004591 0.024892965 0.015923208 0.024262019 0.10872001 -0.120659515 0.027400546 0.10556466 0.072776996 -0.023150228 -0.046087254 0.043364238 0.022689832 -0.0706823 -0.05724987 0.06417758 0.08068606 0.10973305 0.0020420533 -0.07457893 0.033768874 0.07723193 -0.0343396 -0.027363786 -0.08541746 -0.12276343 0.020971358 -0.15587825 -0.0046633724 0.03179859 0.006251586 -0.06985439 -0.09898856 -0.0867125 0.056360546 -0.037080046 0.034116305 -0.21545877 -0.063914284 -0.022340378 0.0034600948 0.08053835 -0.09850662 -0.022238748 -0.026355803 0.12851927 -0.0031512207 0.022137286 -0.11810767 0.060169112 -0.095504045 -0.008952906 -0.017924491 0.0065098195 -0.027916208 0.16938196 -0.09589127 -0.017563581 0.027330615 0.04743417 -0.03241602 -0.04533588 -0.0004242827 -0.123276696 0.057627086 0.0059402655 -0.0047411737 0.057564773 -0.058833446 -0.022876047 -0.0739261 0.044801496 0.13640918 0.13697644 -0.0021195181 -0.10590639 -0.0053240866 -0.01568031 -0.09469945 0.005774299 0.014577086 -0.06828815 0.0029668391 -0.12111899 0.026577268 -0.01081115 -0.07144047 -0.001217606 -0.03118363 -0.049876977 -0.041987572 -0.022239594 -0.029831115 -0.012837314 -0.027475456 -0.018463338 -0.035082776 -0.110805355 -0.019224808 -0.028233368 0.048361186 -0.08063314 -0.02833165 -0.18805897 -0.15877138 -0.07920431 0.06720214 -0.0043181004 -0.1282395 -0.061275493 -0.028921815 -0.017704504 -0.02550678 -0.06563153 -0.07595868 0.060631137 0.03507905 0.017583447 -0.032575756 0.06513517 -0.060709078 0.036932547 -0.034800906 -0.037184685 -0.012047529 -0.1503378 0.04019021 0.018010888 -0.038083963 -0.0120987585 0.043739602 -0.13350086 -0.00021980159 0.027165476 0.04090526 0.05375888 0.04590123 0.037228435 9.449063e-05 -0.014683936 -0.14969215 -0.094144695 0.14126703 -0.023255685 -0.15652294 -0.08961548 0.06693921 0.07675354 0.033558108 -0.1786139 -0.1323661 -0.009780459 0.07332382 0.06352003 -0.08147681 0.011755791 -0.044135243 -0.009317805 -0.0007288987 -0.0064948606 0.08716874 0.061592646 0.052200574 0.005131143 -0.15794408 -0.010738484 0.0069372286 -0.05311469 -0.023915356 0.050601665 0.001114299 0.026373593 -0.1886816 0.023624107 0.005849388 0.062251396 0.023846412 0.1399701 0.018708589 0.007623101 0.09184457 0.13460009 -0.020014921 -0.067444205 0.052559808 -0.009085998
Fox_Sparrow -0.0042389804 0.119213216 -0.01695704 0.00763154 -0.018508902 -0.07837455 0.066746175 0.20177142 0.01273002 -0.067322366 0.06412887 -0.020748748 -0.018218054 -0.06511862 -0.043407377 -0.037328355 0.0789558 0.016457086 -0.01356243 -0.012050444 -0.054088566 -0.005918618 0.08593486 0.022898274 0.03636198 -0.018654544 -0.11328976 -0.03351143 -0.0293896 -0.07672314 0.04833524 -0.03148656 0.007281934 -0.01150523 -0.036994107 0.04142304 0.021828014 -0.064584345 -0.030804297 0.0065907096 -0.015819646 0.009901185 0.010891076 -0.07990468 0.025736349 0.09537887 0.063219056 0.0023242107 -0.02266531 0.042565595 0.023028413 0.00033637547 -0.032584466 0.014697804 -0.05610956 0.12675986 0.04504808 0.034917444 -0.010655601 -0.0074708355 -0.048526585 -0.0767114 -0.0037680638 0.017194575 0.0060310303 0.055447116 0.066480614 -0.023546854 -0.09024406 -0.028522482 0.024867997 -0.012199195 0.066655405 -0.0669629 -0.0073532676 0.042826217 -0.06908556 0.021502674 -0.039151415 0.1413312 -0.0451982 -0.10695128 -0.004349418 0.16176233 0.00911045 0.020192932 -0.077567115 0.053592317 0.10442103 0.03041853 0.14254792 -0.02875695 0.0019674303 0.0025873687 0.09337588 0.1101828 0.06622906 -0.030137967 -0.025323419 0.032080363 -0.032072667 -0.0016925416 0.045838937 0.012516798 0.03570333 -0.06588751 0.017952079 -0.016814524 -0.08436453 0.056532167 -0.11482227 0.024054099 0.027540304 0.055343825 0.014600933 0.016283892 0.010601262 0.022674276 0.10520808 -0.11475411 0.02495178 0.09553501 0.06702465 -0.014314755 -0.048319627 0.040432155 0.022075653 -0.063976206 -0.054457508 0.057139013 0.07253235 0.105314456 0.0031856517 -0.06980197 0.0349639 0.067353226 -0.037814382 -0.025610322 -0.08442583 -0.11670225 0.018648576 -0.14510179 -0.0029168508 0.035583645 0.009485723 -0.071923144 -0.09451344 -0.080120996 0.055940993 -0.041002363 0.03017578 -0.19482796 -0.054781646 -0.026695328 0.0023357843 0.068127565 -0.09933633 -0.027962118 -0.024828032 0.114607476 0.0016712671 0.016765915 -0.10675573 0.05908483 -0.09151335 -0.011823836 -0.015623112 0.01323834 -0.033446047 0.15948455 -0.09254214 -0.011963612 0.02021495 0.043566115 -0.027778145 -0.03613749 9.828816e-05 -0.10923393 0.05479384 0.005072513 -0.0031663058 0.048369475 -0.05626945 -0.019678822 -0.07257872 0.03841536 0.13233158 0.13514523 -0.0063473163 -0.09905535 -0.0026516977 -0.016966255 -0.08732159 0.006035931 0.016556857 -0.0705898 0.0027696819 -0.108827494 0.030004999 -0.008815257 -0.07097125 -0.0022291003 -0.027025044 -0.049232896 -0.046005882 -0.022883993 -0.024167184 -0.009861667 -0.02388332 -0.023169437 -0.033105385 -0.10073174 -0.025403682 -0.031641208 0.04075238 -0.0760927 -0.030721335 -0.18159564 -0.14590722 -0.07363699 0.059955526 -0.0012484246 -0.11254296 -0.04996033 -0.034039684 -0.01457643 -0.026114918 -0.06830417 -0.06575076 0.060203224 0.03348662 0.014838163 -0.02864821 0.05838628 -0.052987278 0.040617958 -0.02841536 -0.0336611 -0.008024616 -0.14034331 0.045433007 0.012520305 -0.039269596 -0.016284684 0.038996786 -0.12749738 -0.0016167442 0.027080676 0.03990239 0.04922433 0.04328752 0.032247078 0.0068521732 -0.005160923 -0.13907199 -0.0839732 0.13642232 -0.023869442 -0.14805283 -0.08511611 0.06422676 0.07317861 0.032052968 -0.17208704 -0.120187506 -0.0116518205 0.0649634 0.055822793 -0.07858742 0.004309974 -0.041402064 -0.008536284 0.0023927486 -0.005906188 0.080825076 0.057841785 0.0403603 0.0058504655 -0.14604376 -0.008118208 0.010116821 -0.05119534 -0.0152083365 0.044816393 8.6479886e-05 0.024878746 -0.17761758 0.0303468 -0.000118301905 0.059241645 0.028741872 0.1304367 0.009564824 0.0066572307 0.0859291 0.1234601 -0.022391295 -0.06654922 0.04697319 -0.006946542
Pine_Warbler 0.025066106 0.13918853 -0.032760855 0.016099911 -0.008724764 -0.10645057 0.0846975 0.24218169 0.021217747 -0.06382758 0.076702535 -0.03876862 -0.02779611 -0.06219302 -0.06295769 -0.029141633 0.08298431 0.034907885 0.008719878 -0.046580803 -0.0763683 -0.002810589 0.1098909 0.0032477013 0.05369797 -0.015425923 -0.15555656 -0.056216337 -0.042430773 -0.09450334 0.06278006 -0.032242686 -0.007798602 -0.002282683 -0.05148958 0.057665493 -0.004241309 -0.071861036 -0.024310114 -0.0027862391 -0.0009334733 -0.012386233 0.011936505 -0.085432544 0.05092944 0.14247265 0.057339426 0.0009407331 -0.022491766 0.045587976 0.018231822 -0.018994452 -0.027477633 0.043903206 -0.078969665 0.16245666 0.03868044 0.03382756 -0.02515032 -0.02054088 -0.060446095 -0.122820914 0.0153914625 0.023650078 0.0072466 0.08139413 0.08453004 -0.019294765 -0.10524573 -0.03770128 -0.0063918126 -0.01770491 0.07231807 -0.081952386 -0.0062531144 0.060396045 -0.090970755 0.014975498 -0.04434314 0.1848471 -0.058690984 -0.15547608 -0.027146507 0.19374706 0.022131674 0.01710513 -0.096170776 0.06583255 0.14257303 0.03500841 0.17646532 -0.029552653 -0.0051462636 0.023894254 0.09995631 0.13788565 0.09795698 -0.04673055 -0.038700145 0.05672539 -0.019020393 -0.03122912 0.07513794 0.028199928 0.015640087 -0.075690016 0.032664817 -0.036227558 -0.09954125 0.07365806 -0.13250546 0.02455377 0.04138606 0.049608964 0.0120398505 0.018227115 0.011232227 -0.0018586726 0.1261367 -0.15614323 0.025177192 0.12853685 0.06904624 -0.030842012 -0.08144578 0.039217625 0.03950729 -0.08482599 -0.060190327 0.06621635 0.072599515 0.13332094 0.016498407 -0.06321849 0.02340901 0.088245966 -0.048690785 -0.05219619 -0.122209795 -0.1523566 0.014395862 -0.17420875 -0.0018032647 0.04867941 0.010963933 -0.078109704 -0.12892249 -0.097642764 0.07131561 -0.043635156 0.022518825 -0.24984337 -0.0625422 -0.04714707 -0.012606012 0.10713379 -0.12016121 -0.02475434 -0.021465154 0.14454329 0.009997456 0.025061721 -0.13777676 0.06544057 -0.12130893 -0.024082424 -0.044946704 0.032058533 -0.04164695 0.18716398 -0.09401655 -0.0139578 0.026840454 0.06188373 -0.03645521 -0.062551215 0.017157117 -0.16401243 0.054298554 0.027139753 0.01729205 0.059822034 -0.09661585 -0.011577852 -0.07425388 0.061471947 0.15793747 0.18345685 0.012794425 -0.10953299 -0.0048088143 -0.013766394 -0.1337269 0.03112922 0.015914824 -0.06393433 0.0018230866 -0.15377194 0.068555444 -0.042078525 -0.08122793 -0.0048707835 -0.029455533 -0.031018527 -0.052194275 -0.032874342 -0.03506552 -0.03355088 -0.021165764 -0.020213941 -0.026741931 -0.13949226 -0.029367913 -0.043212913 0.05222894 -0.09991209 -0.059355386 -0.22867806 -0.18818979 -0.080578335 0.06538512 0.011727371 -0.1397167 -0.05980677 -0.011526891 -0.0060817553 -0.03812553 -0.08623514 -0.08422093 0.050492622 0.028722411 0.042702477 -0.024116242 0.105809614 -0.07213263 0.05188818 -0.045035496 -0.048733793 0.0044614337 -0.18993616 0.04981829 0.019923119 -0.05420543 -0.01509647 0.048495594 -0.15112536 0.0067194724 0.01525852 0.054962303 0.062935255 0.03849182 0.038905013 0.004850297 -0.017249048 -0.15639034 -0.10759385 0.1614066 -0.034334768 -0.17233028 -0.11428829 0.07441292 0.104861654 0.03289706 -0.22193225 -0.16821986 -0.031537734 0.0669789 0.08266733 -0.10183424 0.0107626235 -0.06448598 0.0024119185 0.017125688 -0.0040836516 0.10775614 0.078304455 0.027689837 -0.018811893 -0.18075508 -0.015168342 -0.0019017012 -0.07194259 -0.006581018 0.07623651 0.01822332 0.043669052 -0.21345012 -0.0026605944 -0.0018861401 0.07504059 0.015158639 0.16860946 0.03451199 0.035337776 0.11418329 0.15308265 -0.03567575 -0.07063667 0.039684027 -0.004078495
Yellow_throated_Vireo 0.007826348 0.13799912 -0.035823185 0.018608708 -0.012314458 -0.11059487 0.08064653 0.24923192 0.019370355 -0.06339783 0.07394854 -0.038343504 -0.0251737 -0.06407406 -0.057889126 -0.027162245 0.08420138 0.024007203 0.0093933875 -0.03594292 -0.069312945 -0.0038265947 0.09865132 0.0035388952 0.064227805 -0.025059469 -0.16156156 -0.04353732 -0.040099885 -0.10052575 0.064139925 -0.03537066 -0.003563031 0.0035012243 -0.058006693 0.0559317 0.0111643635 -0.060850486 -0.019934202 0.005406928 -0.010827968 -0.0015916488 0.0081350645 -0.08570363 0.049128007 0.13156147 0.06495764 0.01536644 -0.020754851 0.049572248 0.012273928 -0.012867085 -0.023431707 0.03733747 -0.07269204 0.1628872 0.048176266 0.04055918 -0.02107071 -0.012413908 -0.06535419 -0.114328995 0.0062394445 0.018028062 0.006350023 0.074700885 0.081895486 -0.025521122 -0.097917624 -0.044333242 0.0054987897 -0.014654388 0.07994927 -0.085766114 -0.003007788 0.05635665 -0.0923231 0.01282564 -0.036973543 0.17980233 -0.054423552 -0.15286395 -0.016822802 0.20525575 0.022323592 0.018239887 -0.11804892 0.0687907 0.15476272 0.03966422 0.17216995 -0.016476475 -0.001014703 0.019703697 0.11159165 0.13913813 0.08599465 -0.040378395 -0.021953648 0.058388468 -0.025290607 -0.028160902 0.07379011 0.019013688 0.02647447 -0.079732515 0.028103594 -0.017571675 -0.109030195 0.07148794 -0.1286831 0.02390637 0.04541479 0.05011276 0.02333639 0.014563899 0.012602083 0.0029050133 0.12669566 -0.15176071 0.025447337 0.123277076 0.07784443 -0.021559682 -0.08306503 0.03955477 0.03854956 -0.091274574 -0.05655447 0.069269784 0.07450597 0.125726 0.023605896 -0.06959368 0.0231652 0.082819894 -0.051739614 -0.056681138 -0.118402235 -0.15834486 0.007990569 -0.17477302 -0.0002021736 0.0520487 0.009360317 -0.07686167 -0.12443159 -0.10387207 0.0692925 -0.034460478 0.022148449 -0.254152 -0.0803557 -0.03912855 -0.0040183812 0.09426907 -0.12040046 -0.029680885 -0.016181452 0.15136826 -0.00250569 0.025773613 -0.13707635 0.06148592 -0.13165267 -0.01874556 -0.049931005 0.017421948 -0.0402507 0.18845028 -0.093930796 -0.0027325717 0.032234304 0.059905052 -0.031526297 -0.05481291 0.023207368 -0.16382267 0.05144549 0.02628702 0.022811137 0.06393678 -0.08528804 -0.016831338 -0.08232479 0.06564398 0.15040681 0.18293525 0.00072397315 -0.113291 -0.008372735 -0.012267844 -0.13127857 0.029565176 0.026084563 -0.06731653 0.0014541149 -0.14902493 0.062292222 -0.039227124 -0.06878567 -0.010699417 -0.03316248 -0.03230556 -0.057500307 -0.03317209 -0.042607583 -0.026757324 -0.022023296 -0.02153401 -0.02914054 -0.13573582 -0.031865988 -0.038043745 0.055253435 -0.10275444 -0.056596547 -0.23139955 -0.18686245 -0.08410408 0.069650255 -0.0012674562 -0.1434981 -0.06357164 -0.020559363 -0.022614216 -0.03598803 -0.08088595 -0.07925342 0.05929527 0.031072475 0.031432703 -0.026971944 0.0945225 -0.06335183 0.04930208 -0.046024505 -0.052062307 -0.0045301556 -0.1887142 0.042886943 0.018058958 -0.047063816 -0.0077793845 0.048408568 -0.1617305 0.0068360767 0.02299671 0.057820655 0.06746257 0.04439683 0.04079193 0.0057647293 -0.014748586 -0.16007298 -0.10467929 0.163239 -0.028512422 -0.18032238 -0.110873364 0.08056179 0.10666365 0.029770996 -0.21781214 -0.15873817 -0.02449488 0.07842078 0.08204123 -0.103255354 0.010017532 -0.05495464 -0.0032704608 0.0014638754 -0.0073350584 0.11233299 0.07850051 0.033475246 -0.008113742 -0.18171465 -0.01131567 -0.0066627557 -0.056573525 -0.01832019 0.07041111 0.016265595 0.045806043 -0.22648668 0.009072931 0.011708426 0.08508213 0.010627932 0.16387378 0.024346208 0.037641857 0.10896939 0.15153445 -0.03835987 -0.0794819 0.037788864 -0.007837106
Harris_Sparrow -0.00035071647 0.11726973 -0.015532116 0.006299722 -0.017241463 -0.07862179 0.068494 0.20851865 0.013650145 -0.0652976 0.0600903 -0.027431931 -0.02580772 -0.06277924 -0.04968499 -0.039174195 0.07654447 0.021625426 -0.006088964 -0.01928655 -0.059024274 -0.0039059084 0.08647036 0.01962894 0.042329285 -0.017623113 -0.12650003 -0.033718005 -0.03289075 -0.07599929 0.046118997 -0.030411415 0.008554565 -0.009475845 -0.042561956 0.03434293 0.013817195 -0.06515198 -0.025060534 0.0044897962 -0.015703628 0.008503706 0.007792507 -0.08041124 0.02315037 0.095958665 0.06465612 0.0020103666 -0.023808429 0.047010582 0.021182125 -0.0035918935 -0.028077606 0.01831174 -0.0540653 0.1305247 0.044422537 0.03383241 -0.009834805 -0.0037789724 -0.05409791 -0.086893596 -0.0019237496 0.016901426 0.003920557 0.060912553 0.07352832 -0.025030654 -0.09434037 -0.026286265 0.022733772 -0.009469192 0.06953998 -0.073204026 -0.006920808 0.04728775 -0.06842216 0.013669355 -0.041969202 0.14532943 -0.047180533 -0.114293806 -0.007733542 0.1698375 0.009334842 0.021406472 -0.08278651 0.05011576 0.10859613 0.034556467 0.15035053 -0.029603742 0.0027071948 0.0021753814 0.09357536 0.11528232 0.06927677 -0.026679026 -0.020641629 0.040516738 -0.03412514 -0.0033122145 0.050177883 0.012921414 0.03214241 -0.07159465 0.015011699 -0.019759936 -0.086683854 0.05566735 -0.115697585 0.02538095 0.027725657 0.05230234 0.020951284 0.020304296 0.014343413 0.01911375 0.10596351 -0.11969054 0.027313767 0.103406206 0.069653645 -0.014604069 -0.047332022 0.04273979 0.020012777 -0.071944445 -0.051340267 0.06250561 0.07262809 0.10862262 0.008356529 -0.069489546 0.033257335 0.07040705 -0.041589063 -0.026329262 -0.08689923 -0.1248462 0.015031562 -0.14811553 0.0027042942 0.03453202 0.005336947 -0.071805194 -0.09995555 -0.082310304 0.058683027 -0.039400976 0.028956262 -0.20454855 -0.06355498 -0.025924183 0.0019131071 0.07636741 -0.096710786 -0.025552308 -0.023683941 0.12491689 0.0036491936 0.02330954 -0.11060767 0.061884027 -0.09149722 -0.012174158 -0.017996056 0.012459318 -0.029196452 0.16104792 -0.090592176 -0.014316101 0.020635426 0.045775365 -0.025416145 -0.03803475 0.0034144924 -0.116820976 0.05373103 0.009679775 0.0036916912 0.050808948 -0.0586513 -0.016191589 -0.070130914 0.046993192 0.13407975 0.1411167 -0.0022823666 -0.10328439 -0.0005638177 -0.012536618 -0.0939419 0.011034527 0.015172839 -0.067216665 0.0028618025 -0.11612899 0.029904306 -0.01055953 -0.06595037 -0.0012630196 -0.027475173 -0.047447678 -0.040124904 -0.026451029 -0.025253167 -0.013515504 -0.018345978 -0.02312886 -0.027059786 -0.1093546 -0.026888778 -0.031351548 0.040584385 -0.07327541 -0.028232828 -0.18709102 -0.15100509 -0.07488463 0.06800236 0.0015649755 -0.120521866 -0.05429186 -0.030775916 -0.013648542 -0.027617082 -0.06731251 -0.06629131 0.05542189 0.025809694 0.019829256 -0.027350169 0.06421443 -0.056104857 0.035507977 -0.03037666 -0.035016596 -0.009294104 -0.14299175 0.04532514 0.014907005 -0.035585422 -0.011206476 0.042044513 -0.12692983 -0.0022788304 0.023690844 0.043820236 0.05318629 0.043714978 0.039131545 0.0044114226 -0.013366605 -0.13979025 -0.09022188 0.14112367 -0.019923467 -0.15015686 -0.082790904 0.059831087 0.07487589 0.030185355 -0.17228907 -0.12578586 -0.013604165 0.06447958 0.0577461 -0.078788355 0.006788096 -0.045142025 -0.013114521 0.0022409344 -0.00875424 0.08548191 0.054244768 0.046083905 0.0016866123 -0.1498575 -0.008703079 0.00319915 -0.05132432 -0.016811404 0.047959335 0.0036816956 0.03133343 -0.17809284 0.02608852 0.0005678156 0.05824289 0.027609795 0.13465409 0.01689955 0.01474718 0.08576778 0.12391244 -0.023433408 -0.062287502 0.04286877 -0.002360183
Pied_billed_Grebe 0.010084931 0.1711145 -0.03556266 0.021175336 -0.011497464 -0.1272748 0.09333552 0.28904685 0.025484856 -0.06947442 0.085901864 -0.05100343 -0.03673192 -0.07419019 -0.071282685 -0.04630443 0.0951216 0.03618525 0.009546947 -0.03654588 -0.08558665 0.0007968309 0.117600225 0.0054146526 0.06475926 -0.027647946 -0.18419613 -0.05051389 -0.04981515 -0.11318645 0.071009934 -0.048874583 -0.011918256 0.003588421 -0.065000996 0.06428757 0.018834421 -0.07628602 -0.02681581 0.013034596 -0.00580902 -0.017461194 0.0068152267 -0.09614245 0.05811716 0.16148764 0.07715543 0.0067759524 -0.023251934 0.049713455 0.005729472 -0.020009385 -0.021492053 0.042663407 -0.0925485 0.19939125 0.06481513 0.04662883 -0.019783886 -0.008996964 -0.07505091 -0.14316243 0.0008724365 0.020336224 0.014793239 0.08925616 0.09453803 -0.017813155 -0.11201022 -0.045273893 -0.003063751 -0.028731551 0.10009158 -0.10113015 -0.0041828365 0.07910735 -0.107146375 0.015898906 -0.049214702 0.2078552 -0.07263919 -0.18499678 -0.021550909 0.24138005 0.021212976 0.02942341 -0.14290363 0.07166948 0.18600076 0.047664326 0.21002834 -0.025725823 -0.0066335048 0.016075203 0.12060462 0.17584692 0.11460832 -0.045703333 -0.032890394 0.0695369 -0.033783473 -0.036557168 0.08548644 0.026624262 0.033694576 -0.087871306 0.0342895 -0.020833595 -0.1208844 0.084593005 -0.16287753 0.02561434 0.046526838 0.06661177 0.015890561 0.02212397 0.008188933 0.0013529358 0.14782602 -0.17973751 0.03851297 0.15351902 0.08825583 -0.02361499 -0.090307385 0.04882149 0.046498727 -0.10802846 -0.07176811 0.08154944 0.09269947 0.14692532 0.023928562 -0.086781174 0.022701165 0.098249175 -0.05799824 -0.063933216 -0.13493349 -0.19290496 0.009483988 -0.21610692 0.005539529 0.055218875 0.017466977 -0.09043369 -0.1530781 -0.12348513 0.08814124 -0.041566662 0.026137631 -0.30009532 -0.08763338 -0.047886677 -0.0060686646 0.116019554 -0.13702056 -0.040107917 -0.022459853 0.17997195 0.0074775433 0.03657221 -0.16158517 0.074676804 -0.15435109 -0.028898029 -0.055512458 0.032067742 -0.041183766 0.23019089 -0.1097044 -0.008263281 0.039838325 0.066210985 -0.03876856 -0.075294726 0.030689878 -0.1947349 0.06686198 0.02793356 0.02489518 0.064543754 -0.11129893 -0.025157204 -0.09574389 0.072109185 0.16893622 0.20819725 -0.008120962 -0.13873209 -0.0065761674 -0.011462678 -0.15005715 0.034540985 0.028496183 -0.07633885 -0.01132017 -0.17417912 0.06800242 -0.03894852 -0.094409764 -0.012473306 -0.03584361 -0.0480073 -0.06579129 -0.040209647 -0.047331356 -0.03432878 -0.02938308 -0.024604905 -0.035783216 -0.16097254 -0.030843852 -0.045690637 0.06700971 -0.120622136 -0.064562954 -0.2716441 -0.21553299 -0.09838302 0.08645498 0.005961823 -0.17505394 -0.07191503 -0.01604196 -0.014377039 -0.042515147 -0.10092897 -0.09479539 0.07055193 0.032241423 0.04676422 -0.03851578 0.10845364 -0.07044797 0.057931762 -0.06314712 -0.056805197 0.0014455608 -0.22433458 0.057453047 0.019759586 -0.051181737 -0.011266503 0.052391984 -0.19160545 -0.0005887231 0.027939279 0.07020885 0.07615869 0.054386623 0.056785844 0.008606249 -0.021833321 -0.18045053 -0.12749669 0.19359808 -0.03358155 -0.21333826 -0.12761708 0.08620692 0.1219641 0.024089023 -0.2555524 -0.17872536 -0.034842372 0.091187 0.09780731 -0.11183348 0.0071006725 -0.061063383 -0.013292084 0.00015032204 -0.010213755 0.13705936 0.096630774 0.041660957 -0.010071346 -0.20487998 -0.0058629783 -0.011078456 -0.07500126 -0.016780723 0.083493024 0.021146944 0.061392386 -0.25862083 0.016217936 0.0129597485 0.097590275 0.01946277 0.20144022 0.033252843 0.038725536 0.12393019 0.18398227 -0.04247983 -0.09144753 0.051193323 -0.014047196
Black_Tern 0.014948325 0.13891433 -0.03851318 0.014532244 -0.005922064 -0.11525774 0.0813083 0.25780347 0.020521384 -0.06638107 0.07419432 -0.041177355 -0.023158038 -0.056471013 -0.052655317 -0.031913374 0.08554021 0.033830743 0.017297847 -0.034101136 -0.06635037 -0.011969719 0.09911382 -1.3553559e-05 0.06659016 -0.02640456 -0.16621304 -0.04540168 -0.037851606 -0.10000672 0.06727253 -0.039730407 -0.008165536 -0.00034428114 -0.059547197 0.0532306 0.010775648 -0.058713317 -0.016205302 -0.0010244509 -0.010550447 -0.010763566 0.0127386395 -0.081607014 0.050106596 0.13618402 0.067175165 0.0107930815 -0.015931074 0.041948054 0.008114519 -0.021440057 -0.023077488 0.034190357 -0.07097226 0.17469653 0.04834398 0.043793958 -0.021267088 -0.013778311 -0.06390851 -0.11576082 0.006195515 0.024753056 0.0068693645 0.08325048 0.09091258 -0.017373096 -0.09947945 -0.042605232 0.004217363 -0.021016315 0.089060776 -0.08195916 0.0003858894 0.059470557 -0.09806798 0.015596043 -0.04451402 0.17938589 -0.058923524 -0.15498824 -0.018154511 0.21538112 0.024894366 0.01939104 -0.12263804 0.070094876 0.15166506 0.031990197 0.18544678 -0.022226688 -0.0009588822 0.023640048 0.11068552 0.14875008 0.09446429 -0.04562084 -0.025102178 0.05551251 -0.02363018 -0.026988162 0.074214384 0.027121147 0.027923895 -0.075408004 0.037281726 -0.02066023 -0.10699087 0.07584453 -0.13681716 0.028819753 0.047087118 0.052621786 0.02155755 0.0121581685 0.017430801 -0.0024031955 0.124646135 -0.15216665 0.026261829 0.12965737 0.07400887 -0.020880276 -0.083445415 0.043307517 0.03734249 -0.09692088 -0.054922793 0.07939384 0.07454933 0.12352929 0.02295363 -0.07139364 0.014959414 0.08650356 -0.058332697 -0.060877208 -0.121563405 -0.16495141 0.0062863105 -0.17547314 0.0015747338 0.057102025 0.011765174 -0.07306408 -0.12709218 -0.1094917 0.07809509 -0.033205703 0.02037523 -0.26251838 -0.0834792 -0.04488345 -0.00044340224 0.0975327 -0.118904054 -0.027060157 -0.013987414 0.15218315 -0.0024576606 0.022100823 -0.14077388 0.060770456 -0.12865236 -0.018508123 -0.05055478 0.020151287 -0.044974476 0.19251838 -0.09953786 -0.007260389 0.034985576 0.05301516 -0.036930382 -0.061882682 0.02586433 -0.16211261 0.053177778 0.022857357 0.016375642 0.058458045 -0.092928514 -0.016713187 -0.07849993 0.063568674 0.15351804 0.18438493 -0.002278123 -0.12125594 -0.014600554 -0.011914077 -0.13915767 0.03211975 0.023490123 -0.072772264 -0.0066966265 -0.14695698 0.06642537 -0.03458396 -0.073207445 -0.014774901 -0.0385096 -0.03102346 -0.06003177 -0.025755534 -0.045104325 -0.030457186 -0.017085986 -0.018729866 -0.028993528 -0.14033937 -0.026315102 -0.035761733 0.055654068 -0.10263983 -0.059622556 -0.22995348 -0.1929783 -0.08215347 0.0703882 0.0043731392 -0.15354452 -0.057569522 -0.017068021 -0.02061062 -0.034996703 -0.08931868 -0.08448131 0.0560627 0.032224346 0.032283776 -0.026386699 0.09928324 -0.06943236 0.0497525 -0.047740564 -0.047069818 4.9557602e-05 -0.1930829 0.047822855 0.01975644 -0.051496916 -0.008146671 0.047969952 -0.16952604 0.0013745285 0.020992275 0.060127858 0.06844905 0.045228112 0.039512765 0.00067667064 -0.018138113 -0.16095565 -0.10071486 0.16640365 -0.03448364 -0.1860528 -0.11440663 0.085912056 0.1136747 0.034520645 -0.227689 -0.16143574 -0.025709253 0.07569624 0.07736108 -0.09818619 0.0049477834 -0.052030668 -0.0038567006 -0.0029675963 -0.010974287 0.11925381 0.08025323 0.03670298 -0.011572159 -0.18457928 -0.013536782 -0.009906397 -0.06403623 -0.018550558 0.07196404 0.012157717 0.053268638 -0.22688735 0.012318809 0.007935752 0.08967327 0.0028316982 0.17200808 0.030268399 0.044637915 0.10979128 0.15624955 -0.03459499 -0.08086158 0.035096496 -0.009925121
Tree_Sparrow 0.0017935471 0.1157855 -0.013981286 0.014055078 -0.022432696 -0.072115734 0.061444975 0.19170943 0.0070541874 -0.05750483 0.058632668 -0.01966482 -0.017471185 -0.060088497 -0.049112286 -0.03762777 0.07655562 0.01607776 -0.01058983 -0.013265963 -0.05280578 -0.0065216757 0.07836712 0.018271657 0.040275153 -0.01931675 -0.112594195 -0.033079658 -0.024699487 -0.07241677 0.04739026 -0.030506268 0.012139173 -0.014802942 -0.037874322 0.031319954 0.016244676 -0.062512994 -0.028074892 -0.0006771647 -0.017605428 0.008701565 0.009154038 -0.07593601 0.018247966 0.089039564 0.058184654 0.0037302314 -0.025690824 0.04111465 0.021229284 0.0035146426 -0.03186979 0.018419838 -0.0527605 0.119373314 0.043165755 0.02946938 -0.015189844 -0.00794478 -0.046674594 -0.074763104 -0.010354981 0.01795737 0.0042779394 0.054110005 0.0699847 -0.025278183 -0.088431604 -0.02222914 0.023068536 -0.008504658 0.06274269 -0.07081515 -0.0054428214 0.041388214 -0.06387272 0.01785704 -0.03351753 0.13791488 -0.044057272 -0.11035618 -0.0019501843 0.15475196 0.007492896 0.021786429 -0.080851115 0.048007477 0.10177081 0.035184916 0.14439113 -0.030817809 0.0015852406 0.00275872 0.08138675 0.10728294 0.05760298 -0.021369398 -0.024805073 0.03630567 -0.02807775 0.00013916098 0.04901032 0.016635217 0.03409949 -0.06910049 0.016808905 -0.014812285 -0.08144005 0.04778434 -0.11016262 0.016701156 0.03370626 0.053127266 0.02005073 0.018500607 0.009213957 0.018296275 0.10182568 -0.10701416 0.026533294 0.09937222 0.057985585 -0.011349191 -0.042109694 0.041148197 0.018202437 -0.06027359 -0.04785036 0.054028973 0.06408092 0.101778455 0.0016105205 -0.06607015 0.031219428 0.07207823 -0.030670589 -0.029549848 -0.084973626 -0.11030798 0.019556534 -0.13628526 -0.002046789 0.027841672 0.004713971 -0.06634677 -0.0911891 -0.07762685 0.050107576 -0.03824666 0.031252787 -0.19425055 -0.059734046 -0.019552872 0.004595571 0.074124 -0.09241641 -0.027513128 -0.02220698 0.11285502 -0.003756393 0.019372806 -0.10362243 0.0556407 -0.08403627 -0.0078030797 -0.02056927 0.007705054 -0.030262291 0.15242825 -0.088438325 -0.012163671 0.021233572 0.03837878 -0.03283217 -0.03510465 -0.002127457 -0.108320594 0.050531298 0.01250194 -0.005014923 0.051476803 -0.052023266 -0.022216016 -0.06873084 0.04385991 0.12354181 0.12837276 0.0023738337 -0.09343973 -0.003008878 -0.015344151 -0.09074509 0.009911071 0.016961742 -0.065483436 -0.00040897238 -0.10741739 0.028898196 -0.007085743 -0.0638368 -0.007484348 -0.023381129 -0.046594046 -0.042798568 -0.023001341 -0.029973596 -0.012950846 -0.022268377 -0.019476792 -0.033568703 -0.09819731 -0.02195801 -0.022267539 0.044151 -0.06703393 -0.02282891 -0.1770778 -0.13629803 -0.07113783 0.06711851 -0.0004122483 -0.11027027 -0.057364117 -0.032645937 -0.010433203 -0.026783507 -0.0606539 -0.061628457 0.05357862 0.033940706 0.016412888 -0.029449604 0.057522938 -0.048906837 0.032609854 -0.028966159 -0.0342191 -0.014382014 -0.13050881 0.042931505 0.017422063 -0.031694774 -0.017244548 0.03702696 -0.1262762 -0.003107962 0.024525283 0.039157543 0.048550997 0.043085083 0.036401425 0.0040123016 -0.0061262175 -0.13102308 -0.08059744 0.13006887 -0.014689532 -0.1383917 -0.078306474 0.057071425 0.06983355 0.02599433 -0.15909122 -0.11634741 -0.01146029 0.0630219 0.051348925 -0.06966056 0.010468152 -0.042531244 -0.0094484035 -0.004597827 -0.0114760045 0.08505147 0.05119692 0.043987088 0.004395279 -0.14214173 -0.008064372 0.0032402354 -0.04751168 -0.017694565 0.04743938 -0.000991255 0.027862644 -0.17148496 0.028294262 -0.0013709503 0.06044431 0.025647866 0.1203864 0.010412193 0.0038450256 0.07588386 0.12127173 -0.017696029 -0.060244117 0.045639608 -0.0027833923
Field_Sparrow -0.001986828 0.11383347 -0.017010646 0.0058749705 -0.023178184 -0.081213385 0.069736235 0.19968382 0.0086174095 -0.06511342 0.05967212 -0.021838333 -0.02208255 -0.06059636 -0.047364406 -0.03370461 0.07552952 0.02245546 -0.013205684 -0.019444162 -0.057529222 -0.0040202765 0.08005664 0.019666195 0.036947414 -0.021845657 -0.11425517 -0.037890304 -0.029876975 -0.07909175 0.050516397 -0.026195122 0.0092038745 -0.0075559067 -0.036806326 0.034188658 0.020811617 -0.06505068 -0.022483531 0.0049835527 -0.016857747 0.005770768 0.0116549935 -0.08008576 0.026987724 0.09126639 0.06358246 0.0036109556 -0.017607637 0.041955963 0.022175958 0.0022981146 -0.026779138 0.0196394 -0.05054698 0.12847807 0.047669236 0.034532633 -0.010317949 -0.002293603 -0.045531765 -0.07977856 -0.005429294 0.016763313 0.004909803 0.057478976 0.06287354 -0.028975956 -0.089320816 -0.022165906 0.019832743 -0.012857169 0.06783015 -0.06890986 -0.0055349437 0.046527527 -0.06455879 0.019347385 -0.037667338 0.13827507 -0.039344415 -0.10786603 -0.007919282 0.16264848 0.01155844 0.022026878 -0.08185531 0.05204259 0.1074273 0.03631449 0.14423083 -0.03153412 0.000762247 0.0043286495 0.09122863 0.105980895 0.06753208 -0.029448334 -0.021634115 0.032329734 -0.02637674 -0.00064309343 0.05021436 0.011543669 0.03326974 -0.06788059 0.014633179 -0.014921115 -0.08138873 0.054545153 -0.1127439 0.025577359 0.029495204 0.05239589 0.013891613 0.019522293 0.014084356 0.021454468 0.09854269 -0.11564039 0.022849957 0.0974388 0.061146893 -0.019562967 -0.0483791 0.039393894 0.01840328 -0.06753817 -0.05017957 0.059719194 0.069236085 0.10252286 0.0014607143 -0.06828907 0.030031137 0.07106057 -0.034034267 -0.027941775 -0.08331823 -0.12083597 0.015264098 -0.14241719 0.0017982759 0.031209141 0.0039742365 -0.07047377 -0.09454821 -0.082576275 0.053633336 -0.03833558 0.027476324 -0.19738995 -0.060881924 -0.026090233 0.0035948432 0.069876365 -0.09693633 -0.025015634 -0.025829744 0.11642704 0.002762955 0.017727986 -0.105316356 0.05923491 -0.08575686 -0.009133952 -0.016092058 0.0065276558 -0.032998893 0.1524433 -0.09054838 -0.016059812 0.018756805 0.040958613 -0.027029077 -0.039336767 2.5986948e-05 -0.11004186 0.05080353 0.010993094 0.0034333684 0.05314807 -0.057434566 -0.016489066 -0.070630945 0.042516176 0.1290876 0.13714245 -0.003137376 -0.09559514 -0.0052861897 -0.015797574 -0.086671926 0.006770735 0.01569511 -0.067941815 -0.002703747 -0.10687737 0.028580278 -0.009454222 -0.068158425 -0.004026617 -0.02998282 -0.04213572 -0.038384005 -0.020914266 -0.022825118 -0.012357986 -0.025011938 -0.01544215 -0.031706374 -0.098382674 -0.02030921 -0.028220683 0.038426824 -0.071657464 -0.02684898 -0.18074507 -0.14433867 -0.07440871 0.06556273 -0.0021228176 -0.110558055 -0.05436983 -0.03233516 -0.01643478 -0.028156439 -0.062374074 -0.065892436 0.058963727 0.030589331 0.019848945 -0.025728913 0.06517116 -0.053688627 0.039512217 -0.034570992 -0.034614883 -0.009490987 -0.13908026 0.04350106 0.012771924 -0.037628368 -0.014096957 0.038177174 -0.12667656 0.0011201722 0.02113319 0.042712286 0.048912745 0.043162245 0.036475793 0.0035036723 -0.008892305 -0.13468266 -0.08282632 0.13271329 -0.021911692 -0.14695923 -0.085236594 0.060806215 0.06993019 0.028282009 -0.16807397 -0.12452712 -0.012339933 0.06630812 0.05451598 -0.07819045 0.008966303 -0.042364728 -0.0113844825 -0.0012789897 -0.008643199 0.07994343 0.050710183 0.045349684 0.0044818637 -0.14513765 -0.0058774333 0.006986755 -0.04518468 -0.017178172 0.049179725 0.0014658293 0.024947288 -0.17516644 0.028651934 0.0011229174 0.057775803 0.02827975 0.12515521 0.012868258 0.005783074 0.07996737 0.11750456 -0.019885585 -0.06116924 0.04598444 -0.0041229427
Yellow_billed_Cuckoo 0.011430879 0.16097753 -0.03368031 0.018600436 -0.0058923233 -0.11676644 0.094884045 0.26734316 0.027209401 -0.06689386 0.08265166 -0.04841167 -0.033893444 -0.07127449 -0.06537847 -0.042989302 0.0940567 0.030460307 0.005587213 -0.030936344 -0.08299387 0.00075339264 0.11333706 0.0061460827 0.062252272 -0.027046889 -0.1770689 -0.051104672 -0.049577773 -0.10652699 0.07293821 -0.044776503 -0.012146356 -0.0024341033 -0.06216893 0.054504357 0.0129311755 -0.06573986 -0.019729534 0.0063414113 -0.0123885665 -0.014197414 0.005627474 -0.093924455 0.049340587 0.15047662 0.071064 0.012060334 -0.021550627 0.053604204 0.008540364 -0.021524029 -0.02026968 0.035583846 -0.08371057 0.18779346 0.06049122 0.04540353 -0.0220518 -0.01022922 -0.0731975 -0.13445045 0.0040088175 0.018365042 0.0088371225 0.08518408 0.086163744 -0.019706931 -0.10752968 -0.04697808 0.003080105 -0.02220288 0.095250644 -0.09713837 -0.008911444 0.06613481 -0.10633713 0.013862076 -0.046345502 0.19580388 -0.068428144 -0.17213511 -0.01417249 0.22485617 0.026985109 0.020873602 -0.13184175 0.072080694 0.1741448 0.042176064 0.19871132 -0.023749342 -0.0024924555 0.013821985 0.11757779 0.16449729 0.10824547 -0.042460926 -0.037451442 0.06189993 -0.028271046 -0.03196565 0.07561814 0.025944516 0.028115744 -0.08132363 0.03420307 -0.024560904 -0.113186695 0.08121112 -0.1510757 0.026441636 0.050657015 0.062499985 0.013749909 0.019631991 0.015150701 0.0017864519 0.14012967 -0.16902238 0.03734432 0.13889393 0.08406956 -0.020515706 -0.08341231 0.04003413 0.0410627 -0.09872727 -0.06503143 0.0786091 0.08997515 0.14084798 0.026925242 -0.08273683 0.018053042 0.09158154 -0.054720588 -0.056412626 -0.12956522 -0.17830873 0.005097114 -0.19375385 0.008575901 0.047481947 0.015999911 -0.08309223 -0.14429381 -0.11565039 0.08079891 -0.03643156 0.022814969 -0.28088123 -0.08579907 -0.0456628 -0.0045089955 0.10584 -0.12985103 -0.03377489 -0.023467796 0.17172354 0.00747066 0.02774781 -0.15393813 0.06930333 -0.14776103 -0.029395154 -0.051215082 0.024961565 -0.038310606 0.21698673 -0.10399836 -0.013362143 0.040277474 0.06403079 -0.035744876 -0.071379036 0.022232976 -0.17945169 0.05453195 0.028351348 0.02246586 0.061326016 -0.10555216 -0.019475147 -0.09057205 0.06544403 0.1659668 0.19760121 -0.005811752 -0.13167948 -0.008886959 -0.010782796 -0.1444958 0.028563924 0.028041981 -0.0769597 -0.008915373 -0.16594161 0.06979445 -0.03413377 -0.09013299 -0.016970757 -0.036230303 -0.044850886 -0.06030341 -0.036913015 -0.049582604 -0.03457959 -0.030378697 -0.022762505 -0.03521743 -0.15130217 -0.030427378 -0.039213568 0.060036886 -0.11453645 -0.057486195 -0.2588265 -0.20932819 -0.093567826 0.07752954 0.0048804283 -0.16453749 -0.06477826 -0.013450531 -0.011592836 -0.03833417 -0.08703697 -0.08801094 0.06672707 0.027242478 0.042285014 -0.034821257 0.103807345 -0.066343054 0.052771986 -0.053556927 -0.05892763 0.0006715362 -0.20586872 0.046409655 0.019956253 -0.048115987 -0.010969825 0.051338892 -0.17806217 -0.0038785425 0.030861048 0.064045064 0.06667651 0.0486754 0.048449833 0.002129975 -0.015338322 -0.17427053 -0.12158061 0.18274797 -0.02944011 -0.19775362 -0.11969817 0.08469586 0.11230441 0.03079645 -0.23715024 -0.17237864 -0.032532286 0.08252502 0.09017407 -0.11389015 0.010851466 -0.05882612 -0.005601497 -0.0031630541 -0.014972009 0.12281732 0.08535863 0.038170613 -0.009333929 -0.19611724 -0.008100813 -0.011255868 -0.07230517 -0.020798296 0.08147915 0.016113147 0.059182078 -0.24813758 0.016130043 0.010817574 0.090899415 0.014005351 0.19118157 0.02906483 0.04057735 0.11704891 0.17253798 -0.037200835 -0.0868194 0.045056224 -0.0075489543
Green_Kingfisher 0.013873672 0.15322228 -0.027856404 0.01746099 -0.011971567 -0.11317399 0.09443903 0.25499922 0.02230167 -0.06693965 0.078069374 -0.03730584 -0.030023249 -0.080298066 -0.0633783 -0.04316295 0.08821918 0.027201163 0.010570091 -0.035692096 -0.07475064 -0.008195298 0.109420136 0.005900031 0.060773313 -0.024808364 -0.16620897 -0.05363307 -0.046197116 -0.10112164 0.06411124 -0.04244982 -0.00396905 -0.009304274 -0.047259647 0.049847137 0.010951985 -0.06640088 -0.02625633 0.009317346 -0.011122086 -0.018867005 0.005243552 -0.08482717 0.04908923 0.13520227 0.0708361 0.00816033 -0.021120038 0.048962943 0.007739351 -0.01564342 -0.022184294 0.03701047 -0.08614645 0.17306793 0.048735816 0.036232125 -0.022102129 -0.0073822904 -0.06126127 -0.13214284 0.01270415 0.019827535 0.00877871 0.08019467 0.088046454 -0.015734738 -0.10450753 -0.04588123 -0.00044973026 -0.030017456 0.089780614 -0.086658925 -0.0074997507 0.06341641 -0.10193681 0.013112473 -0.040569037 0.19161347 -0.06409007 -0.16815235 -0.02215245 0.20982812 0.02255559 0.022499815 -0.12367761 0.069031134 0.16526961 0.03933295 0.19002217 -0.025514187 0.00039634365 0.015008226 0.10816105 0.15553421 0.095497444 -0.051073406 -0.03495426 0.052388802 -0.029856358 -0.035531852 0.079919145 0.026247786 0.027749322 -0.08626434 0.027039172 -0.02885516 -0.10418047 0.07500781 -0.13942818 0.022185974 0.04951971 0.057410475 0.01781292 0.013592229 0.009699252 -0.00093430566 0.14011309 -0.15293694 0.034664672 0.13195343 0.07760468 -0.025885124 -0.0782212 0.04126503 0.039183654 -0.08740502 -0.06372787 0.07573997 0.07812379 0.13785188 0.022217771 -0.077650726 0.020679623 0.0889632 -0.054147597 -0.057839148 -0.11302491 -0.16713011 0.011742595 -0.19432835 0.013690737 0.046541527 0.016323896 -0.08070446 -0.13552992 -0.10763562 0.07644091 -0.045775123 0.029990878 -0.25719795 -0.071851805 -0.048358075 -0.009560559 0.10282828 -0.12226812 -0.029460777 -0.016923131 0.16125202 0.0056728153 0.032430645 -0.1474877 0.059704404 -0.13272153 -0.027057223 -0.041848987 0.026776813 -0.036765307 0.20910467 -0.106481 -0.005768116 0.028027544 0.061675377 -0.03490938 -0.06184833 0.014356173 -0.17123492 0.061587997 0.034287974 0.023912646 0.06053152 -0.09762836 -0.025971228 -0.08128898 0.064590305 0.15172334 0.1882038 0.004137989 -0.11462658 -0.006895146 -0.01024298 -0.13979568 0.027292224 0.024802614 -0.07358799 -0.00062099274 -0.15109028 0.06542867 -0.038357757 -0.08260196 -0.02249145 -0.037527315 -0.039275084 -0.058972027 -0.0393 -0.048676662 -0.03275541 -0.020332573 -0.02797812 -0.027344717 -0.13919997 -0.037347008 -0.03908862 0.059374526 -0.10731615 -0.06277752 -0.24307127 -0.1935134 -0.08849248 0.072607055 0.004985417 -0.15279679 -0.0653628 -0.012906372 -0.013575394 -0.036436986 -0.08379947 -0.08738782 0.06745777 0.031686064 0.03683 -0.023008013 0.095854044 -0.061936982 0.051513746 -0.058416624 -0.060851775 0.0014098125 -0.19505703 0.04899982 0.01914639 -0.050497282 -0.02004197 0.052727684 -0.17195518 0.00652585 0.023772087 0.068367586 0.072085306 0.042411562 0.044023063 0.005715881 -0.0118251415 -0.15824923 -0.11155612 0.16930133 -0.0332744 -0.19474177 -0.10850805 0.077032775 0.11498822 0.02883997 -0.22727741 -0.1694818 -0.029352512 0.08259964 0.0882992 -0.10580202 0.0120305875 -0.05766831 -0.010459659 0.011116828 -0.011838218 0.11881283 0.07984063 0.034941126 -0.012816718 -0.18901189 -0.012514401 -0.00558434 -0.078238934 -0.025670167 0.081451915 0.016926758 0.0479611 -0.2361652 0.006835852 0.010517766 0.09187195 0.0141944 0.18248597 0.030347988 0.03542933 0.10415646 0.15718979 -0.032855324 -0.07700846 0.052135248 -0.01249221
White_breasted_Kingfisher 0.015241638 0.14306222 -0.027262114 0.015577104 -0.010063112 -0.11070449 0.08914132 0.24789037 0.015221123 -0.067883484 0.07377711 -0.03003798 -0.035286997 -0.068935096 -0.060041077 -0.035747122 0.08441044 0.025908187 0.008867867 -0.029375067 -0.07768107 -0.0053902133 0.10496886 0.0071237283 0.06398557 -0.02533938 -0.15444718 -0.054389913 -0.042632643 -0.08955116 0.060134284 -0.04525523 -0.0076583894 -0.009309105 -0.047275048 0.053234376 0.0075497697 -0.062247254 -0.021685988 0.0054710973 -0.013957867 -0.015353462 0.0044175987 -0.0788995 0.05415422 0.13290522 0.06366081 0.007648441 -0.022790918 0.043608993 0.005047811 -0.011298843 -0.026436346 0.026628036 -0.08188414 0.16589923 0.040152505 0.03415487 -0.017466338 -0.011162482 -0.0660365 -0.13046938 0.009488758 0.02327226 0.013896913 0.0763112 0.08578211 -0.01738369 -0.09975497 -0.04265774 0.0016478638 -0.029004062 0.080397345 -0.08293238 -0.005801413 0.059080254 -0.09855375 0.007228291 -0.034395706 0.18440355 -0.055548627 -0.164884 -0.0150816515 0.19692159 0.029748136 0.024566581 -0.11883855 0.063401945 0.16122195 0.039369993 0.17927523 -0.027117068 0.0020961603 0.009858485 0.097275615 0.14857447 0.09441427 -0.05234698 -0.023996951 0.05266468 -0.026424654 -0.03152219 0.073293135 0.020457547 0.026389614 -0.08176095 0.028119333 -0.017519403 -0.102658 0.07161686 -0.13564415 0.019525219 0.04760447 0.055822607 0.017212203 0.012328881 0.00615857 0.0010433964 0.13197455 -0.14571463 0.03589628 0.12736309 0.0695752 -0.020246645 -0.081104785 0.035139833 0.04359448 -0.09316159 -0.062608376 0.069890864 0.070489824 0.12799431 0.023744706 -0.0772086 0.017076612 0.08459664 -0.055731323 -0.059320975 -0.107953474 -0.1617117 0.014262151 -0.18252645 0.016749056 0.043043483 0.015483058 -0.07570806 -0.12852025 -0.106888436 0.07477458 -0.040433515 0.021335375 -0.25393507 -0.07111606 -0.044955563 -0.000798112 0.09775101 -0.11113298 -0.031060413 -0.011997007 0.1486801 0.007078156 0.03138949 -0.13991933 0.05441849 -0.1360399 -0.018079847 -0.040664222 0.027228143 -0.04075991 0.19967492 -0.096683614 -0.006731808 0.03385245 0.057855736 -0.03230127 -0.05586075 0.016058173 -0.1644674 0.052578382 0.03453776 0.020955821 0.06127271 -0.09254786 -0.021781614 -0.07231118 0.062212083 0.15000965 0.18564609 0.002846801 -0.10956649 -0.010257729 -0.009839149 -0.12879871 0.028752076 0.022673896 -0.064731985 -0.0014347032 -0.14716302 0.061738003 -0.031514235 -0.07690574 -0.023883436 -0.031843722 -0.03589065 -0.06228698 -0.037709743 -0.046303265 -0.034584545 -0.02326453 -0.024472555 -0.02772401 -0.13249369 -0.036767144 -0.03406273 0.055597287 -0.10891731 -0.061350513 -0.22882344 -0.18575318 -0.08163193 0.07454403 0.0072639645 -0.14396113 -0.065059215 -0.013734554 -0.019261075 -0.0323551 -0.081546426 -0.08632826 0.062812224 0.03258447 0.035721805 -0.024116466 0.092036955 -0.055235628 0.04748175 -0.057471666 -0.05791421 9.743177e-05 -0.18968199 0.042966757 0.022919172 -0.047409672 -0.016046736 0.049562223 -0.16053624 0.006045026 0.022753755 0.07149815 0.0674881 0.04310008 0.047945976 0.00038036628 -0.018820463 -0.14979544 -0.102127865 0.16125491 -0.029705249 -0.18789335 -0.107786834 0.07202418 0.1136204 0.025657391 -0.22132614 -0.16320226 -0.025626311 0.07545545 0.07954149 -0.09974793 0.007997787 -0.058045696 -0.009901738 0.008480005 -0.008106991 0.11288198 0.07979862 0.034935635 -0.017161906 -0.18578674 -0.006581662 -0.01360692 -0.072842285 -0.02854275 0.07825018 0.012919676 0.043257616 -0.22944772 0.004772478 0.015824178 0.09223511 0.014987728 0.17411964 0.028256277 0.036421034 0.09652037 0.14853029 -0.03540638 -0.07330171 0.04522232 -0.015090135
White_eyed_Vireo 0.0111706015 0.14120115 -0.03155179 0.013370328 -0.013831663 -0.099491745 0.08840502 0.24170218 0.019983552 -0.057866532 0.071881525 -0.04020676 -0.026666656 -0.06570691 -0.059002955 -0.028516578 0.079501756 0.03382955 0.0062634973 -0.030818118 -0.07140686 -0.010090571 0.095932946 0.0051524616 0.05839512 -0.023343487 -0.15588792 -0.0484501 -0.040723234 -0.09886348 0.055662632 -0.03571421 -0.0011078109 -0.0020205555 -0.054959368 0.055101924 0.015609955 -0.05577342 -0.026328646 0.0066558328 -0.015021217 0.00022833962 0.013858672 -0.084702976 0.052659076 0.1254488 0.067445725 0.01767022 -0.018342154 0.050106276 0.009665176 -0.012436769 -0.025576467 0.029289426 -0.071985394 0.15969811 0.049790625 0.042207967 -0.01696458 -0.015742715 -0.06522123 -0.11760263 0.0010792223 0.016921792 0.009989968 0.072457135 0.08102882 -0.01592802 -0.09789268 -0.04540177 0.0074746506 -0.017298998 0.07952473 -0.07701114 0.0015915252 0.05750364 -0.092416495 0.014201115 -0.034570895 0.18041873 -0.056843042 -0.15280354 -0.015501225 0.19525586 0.023167329 0.0171647 -0.11293917 0.06720449 0.15281166 0.037109055 0.16967195 -0.015434041 -0.00087120046 0.015805652 0.10926747 0.14257127 0.0939234 -0.037505988 -0.024804218 0.057671852 -0.026283503 -0.03151417 0.072569676 0.01986564 0.029027615 -0.075425826 0.031335343 -0.01804792 -0.10781801 0.06935285 -0.13010274 0.023765177 0.04040189 0.048906617 0.019459799 0.01394485 0.009858015 0.0068107727 0.12723221 -0.1484995 0.024310255 0.124212556 0.07650963 -0.022340223 -0.07893731 0.03803564 0.035699304 -0.091143526 -0.06311376 0.06713677 0.071108624 0.12559777 0.023819262 -0.07839588 0.015472231 0.07874404 -0.05882514 -0.059350234 -0.11838853 -0.15595967 0.00848544 -0.17255276 0.0052739973 0.05041176 0.016152259 -0.076629765 -0.11955432 -0.10527316 0.070234165 -0.03255551 0.0237536 -0.25365546 -0.07681365 -0.037849236 -0.0077727577 0.09327846 -0.1193629 -0.028669672 -0.017141316 0.14570525 0.007967498 0.027887603 -0.13579212 0.06088644 -0.13022959 -0.017790811 -0.046496518 0.017116012 -0.04272759 0.18869452 -0.0976598 -0.001446091 0.036939703 0.051037297 -0.028525952 -0.052564245 0.01630788 -0.15396355 0.048794795 0.027304558 0.022504367 0.061898995 -0.09073014 -0.023145264 -0.07717337 0.06285096 0.15352093 0.17686057 -0.0044121323 -0.11888575 -0.009537521 -0.012370487 -0.12943326 0.02811127 0.033750705 -0.06604844 0.001128052 -0.14003359 0.055230677 -0.036819648 -0.07710307 -0.018531859 -0.035333764 -0.03145994 -0.05762538 -0.029649135 -0.04249215 -0.029252859 -0.019399406 -0.019195708 -0.03265891 -0.1368411 -0.034400087 -0.031137021 0.047753774 -0.10427328 -0.05726279 -0.22203776 -0.18122599 -0.07603201 0.07459938 -0.0029428871 -0.14015268 -0.056754015 -0.015597902 -0.021893656 -0.027946286 -0.08403044 -0.07667186 0.06163006 0.02918963 0.035542317 -0.022189109 0.092530474 -0.057797994 0.050217353 -0.046554796 -0.05115969 0.001969848 -0.18554504 0.04429575 0.01814056 -0.045410287 -0.011035472 0.04657358 -0.15769355 0.0034815364 0.019447226 0.06264153 0.06240203 0.043582868 0.045072578 0.0033416757 -0.01822663 -0.15512769 -0.101330504 0.16117701 -0.0253519 -0.18145163 -0.10291134 0.07581685 0.10348422 0.02929515 -0.21399385 -0.15723345 -0.032914408 0.07648837 0.08161904 -0.10275833 0.012545604 -0.051906668 -0.009496472 -0.0023345267 -0.008228123 0.10752255 0.075367376 0.036201887 -0.008605322 -0.17804031 -0.009726355 -0.006574634 -0.062457614 -0.013807158 0.068847574 0.011328573 0.045864474 -0.21878828 0.00646612 0.009239546 0.083384186 0.0075276694 0.16063116 0.023665473 0.03664091 0.09874291 0.15375242 -0.035423834 -0.07956601 0.038084902 -0.0029900533
House_Sparrow 0.0010416346 0.10667357 -0.021299776 0.0056971363 -0.020675447 -0.06960839 0.0562121 0.17383556 0.0046214233 -0.055399455 0.05651822 -0.024685407 -0.021367768 -0.05300971 -0.040912874 -0.034955855 0.06911903 0.0143750515 -0.005729338 -0.012383135 -0.047013376 0.00015817325 0.07845416 0.015852926 0.034290172 -0.016019376 -0.108656056 -0.033842187 -0.024515726 -0.070962265 0.04083447 -0.028376516 0.009033122 -0.0072781304 -0.034125663 0.034712933 0.014305018 -0.05253234 -0.024039341 0.00043108108 -0.01719191 0.005981943 0.008792366 -0.067337036 0.020271683 0.08508116 0.054796297 0.001879648 -0.01988223 0.036296234 0.015066025 0.0031965561 -0.022069326 0.020766666 -0.04318031 0.10986705 0.040740184 0.023586255 -0.014500264 -0.008259524 -0.043203883 -0.073712684 -0.008141816 0.0168088 0.004061351 0.0528261 0.058308713 -0.024095127 -0.07939236 -0.019424677 0.018495372 -0.011447116 0.061862268 -0.06266388 -0.006551753 0.04372467 -0.061468646 0.017813746 -0.035670765 0.12181067 -0.039333094 -0.10197414 -0.006378681 0.14346913 0.012260581 0.022201916 -0.07698164 0.04566098 0.09456993 0.03164059 0.12985379 -0.026488611 -0.0023518694 0.0023598764 0.07849511 0.10120993 0.05255104 -0.022615068 -0.020125916 0.03081712 -0.02800636 -0.0064504584 0.04398388 0.008467627 0.029643891 -0.06430324 0.014449489 -0.016901266 -0.06924765 0.046847638 -0.10226285 0.021419907 0.025987454 0.04597596 0.015762072 0.013353552 0.008402148 0.0136999935 0.09477315 -0.097172126 0.024099175 0.09112331 0.05879588 -0.016449075 -0.037849315 0.037337404 0.021270318 -0.05657138 -0.048696592 0.051491465 0.06525979 0.09090451 0.0017078121 -0.06050844 0.025058307 0.06166494 -0.03223849 -0.023780033 -0.07594064 -0.104820415 0.012801447 -0.12536536 -0.0021625771 0.024709074 0.0037668867 -0.06268823 -0.087025896 -0.07223957 0.048561543 -0.0325299 0.028199358 -0.17860381 -0.052271966 -0.021446114 0.006361526 0.068718806 -0.08474714 -0.020427786 -0.021508258 0.10333301 -0.0043207416 0.018229939 -0.09919976 0.049187638 -0.08027485 -0.008331601 -0.021419492 0.009018789 -0.024378262 0.14282072 -0.079017155 -0.007957252 0.023565186 0.037639365 -0.02580658 -0.03998857 0.0010037343 -0.101834595 0.046298448 0.009270058 -0.0025674247 0.047271952 -0.057520825 -0.0133389225 -0.058603853 0.036775794 0.114855364 0.121988885 -0.0036055504 -0.08953317 -0.00057931314 -0.011942345 -0.07804578 0.005042608 0.013660382 -0.054205477 -0.001449198 -0.100094855 0.025290938 -0.014853997 -0.061799757 -0.00018009689 -0.025483048 -0.041460067 -0.033505213 -0.021382406 -0.024124624 -0.013409487 -0.019084409 -0.017890204 -0.026910378 -0.09424143 -0.016271975 -0.021535147 0.038345948 -0.06682842 -0.024843654 -0.1599668 -0.13386385 -0.06710266 0.055493966 -0.0007143017 -0.10815443 -0.05050425 -0.02216984 -0.014850494 -0.020668041 -0.056765676 -0.061867107 0.04645208 0.027181068 0.019062772 -0.02624122 0.055445235 -0.050421998 0.034082465 -0.03015023 -0.031226354 -0.008605538 -0.12906177 0.036169823 0.01465877 -0.030312143 -0.015807679 0.032458015 -0.11527316 0.0011414336 0.0194889 0.037729234 0.04634875 0.040147487 0.033547275 0.0019651144 -0.008409496 -0.121992 -0.07875344 0.12052356 -0.019980904 -0.13356529 -0.07084043 0.056405783 0.06540089 0.026183812 -0.15085542 -0.112389185 -0.016071327 0.054450177 0.04843393 -0.06953189 0.010834854 -0.034157496 -0.009135319 -0.0019152744 -0.003649204 0.074460216 0.04730068 0.039845087 0.0021692156 -0.13089629 -0.010017744 0.008901772 -0.041025437 -0.02056051 0.041807503 0.0025656128 0.025991056 -0.16067961 0.024480613 -0.00083634246 0.05533361 0.024610728 0.11652911 0.014492263 0.0067497496 0.069360726 0.11080203 -0.019510979 -0.060518272 0.042995866 -0.008471418
Hooded_Warbler 0.023524944 0.15136565 -0.04046901 0.010326995 -0.0079512745 -0.11859619 0.09440955 0.26474363 0.030122295 -0.066864766 0.08412528 -0.03824006 -0.031777687 -0.07828323 -0.067656 -0.03352418 0.08899553 0.03755018 0.009611791 -0.043098625 -0.08375238 -0.0069756736 0.11705531 -0.0016248415 0.05726913 -0.023009757 -0.16599214 -0.059818562 -0.044865638 -0.10554615 0.07142045 -0.04198658 -0.0073366705 -0.0025978812 -0.04839663 0.05483425 -0.0014088701 -0.077895656 -0.020807324 -0.0022626647 -0.0038977687 -0.012315288 0.013962361 -0.0917827 0.051723514 0.15059762 0.06468003 0.007839072 -0.022769539 0.054050975 0.01651722 -0.014555509 -0.02487592 0.049279824 -0.08773371 0.18564814 0.04900489 0.043970976 -0.02148833 -0.016961765 -0.065504275 -0.13325118 0.012243088 0.023860754 0.011838789 0.08800744 0.09120175 -0.02199965 -0.11477451 -0.042612478 -0.007848781 -0.0230563 0.08327987 -0.09359865 -0.00556923 0.06280531 -0.10024341 0.012487458 -0.047603566 0.1939584 -0.06940336 -0.16151461 -0.027060505 0.21372366 0.020214254 0.01899949 -0.111697815 0.06915626 0.15643148 0.03676908 0.18862247 -0.033518173 -0.0059657223 0.023228418 0.1100116 0.14389758 0.10171285 -0.048878953 -0.042238742 0.05368517 -0.02558009 -0.037292823 0.07469422 0.022744672 0.022532884 -0.0858769 0.03355517 -0.033295322 -0.10526787 0.07858373 -0.14142844 0.026497532 0.04368374 0.05802531 0.012534468 0.023927376 0.009442422 0.0033102955 0.14386101 -0.16774471 0.025220407 0.13498615 0.07735869 -0.032505967 -0.085414045 0.03664616 0.043691862 -0.09465352 -0.060417455 0.06484988 0.08023004 0.14230883 0.022174815 -0.067493476 0.027450118 0.09192917 -0.053388435 -0.058492396 -0.12970789 -0.1672548 0.011428136 -0.18729483 -0.0035467185 0.052652232 0.009204999 -0.082975395 -0.1389204 -0.10545944 0.07160292 -0.04714092 0.028564418 -0.27160245 -0.071240544 -0.042952444 -0.0059728157 0.11225256 -0.123720534 -0.031650435 -0.01941103 0.15723713 0.002543776 0.02529575 -0.14565924 0.0698396 -0.13939346 -0.028121384 -0.04508277 0.029512588 -0.039287083 0.20443863 -0.09965331 -0.018647298 0.03162575 0.07181111 -0.04094293 -0.07507033 0.018680772 -0.18059209 0.05274189 0.033157654 0.019310134 0.069224566 -0.0953924 -0.0137725575 -0.08002109 0.07269231 0.1686769 0.19467151 0.011427606 -0.1177528 -0.0043953108 -0.013888873 -0.14341064 0.035166506 0.023846483 -0.06565829 -0.0018540377 -0.16490014 0.07030147 -0.040272016 -0.08986239 -0.009953903 -0.030376751 -0.034905106 -0.06028044 -0.033584557 -0.039355393 -0.033707395 -0.018702671 -0.026464595 -0.029369317 -0.14639106 -0.032734156 -0.049802884 0.05205926 -0.10808329 -0.060975976 -0.24853452 -0.19981886 -0.08436854 0.065464325 0.01195812 -0.16037793 -0.06241228 -0.009467134 -0.008694873 -0.043169834 -0.09144518 -0.09301832 0.055883013 0.024376985 0.050375786 -0.03407474 0.108512096 -0.08013428 0.057406753 -0.053415358 -0.058366183 0.0042942404 -0.20874777 0.053736985 0.018067159 -0.061146583 -0.018835677 0.05562591 -0.1678278 0.008741662 0.010421008 0.06107336 0.06985601 0.039835628 0.042102642 -0.00054409495 -0.01991839 -0.17212734 -0.11803045 0.17455906 -0.040119812 -0.19131096 -0.11942104 0.08571923 0.11906524 0.034568448 -0.24306662 -0.18034527 -0.03071135 0.07358329 0.08801246 -0.09998911 0.010194917 -0.06055895 0.0044584842 0.015242766 -0.004261717 0.12632342 0.08800902 0.032229424 -0.020898046 -0.1930864 -0.016231459 0.00092169613 -0.07756004 -0.013943393 0.08636695 0.017554054 0.04293975 -0.23268296 -0.0014151353 0.0009284708 0.07652556 0.016642326 0.18802327 0.034909286 0.042079847 0.1214305 0.16504388 -0.041433267 -0.07622318 0.035192247 -0.005206018
Gray_Kingbird 0.011402922 0.15588509 -0.037285022 0.0074816374 -0.00013036419 -0.110688746 0.088393904 0.26439008 0.01856431 -0.06823825 0.08049435 -0.029711962 -0.025887696 -0.066181354 -0.05662117 -0.044163074 0.09055548 0.0329976 0.010950099 -0.035542823 -0.06508194 -0.0092548635 0.11171051 0.0074011115 0.061044365 -0.036302593 -0.16279034 -0.04731856 -0.04636489 -0.10182732 0.06765831 -0.042279605 0.0019742348 -0.003973753 -0.053561836 0.054710127 0.012930747 -0.067865424 -0.035356514 0.01422443 -0.016292196 -0.0064744125 0.015073476 -0.08835389 0.044630155 0.1503587 0.07446859 0.01822053 -0.019013042 0.055767816 0.009848245 -0.020040834 -0.03544007 0.036291797 -0.07601861 0.1801693 0.047227632 0.047993857 -0.01684411 -0.02153314 -0.057974644 -0.12154664 -0.0016554631 0.024491424 0.0021569957 0.08305069 0.09701499 -0.026144953 -0.11119563 -0.040318493 0.0068605985 -0.021800546 0.083313175 -0.088448 -0.0024741348 0.060412202 -0.09669759 0.01585291 -0.04458425 0.19385193 -0.059926983 -0.1611606 -0.023147613 0.2136768 0.021824796 0.02611518 -0.11691425 0.06587216 0.16078562 0.042912483 0.19344147 -0.028929533 -0.008757325 0.014692056 0.09973689 0.15006274 0.092684284 -0.04428704 -0.03444735 0.052240103 -0.034575205 -0.02821994 0.06561328 0.03126011 0.04223806 -0.08545963 0.024155317 -0.017556459 -0.119701646 0.08098473 -0.14555219 0.021891946 0.052230656 0.05744048 0.027241835 0.014089504 0.009435046 -0.00401954 0.13417266 -0.1513945 0.028645655 0.13005206 0.0789397 -0.022942683 -0.07958064 0.03143552 0.033379383 -0.09685261 -0.06395738 0.06971325 0.08664728 0.13310212 0.012568074 -0.075773895 0.024113398 0.087440275 -0.054112915 -0.055127975 -0.11836136 -0.17155752 0.007120003 -0.17714643 0.0021313522 0.042391006 0.011106434 -0.06951504 -0.12699427 -0.10216288 0.071587026 -0.041480944 0.032462545 -0.2731102 -0.07717099 -0.039549142 -0.002554562 0.097303204 -0.12707049 -0.030338742 -0.029490529 0.15782692 0.0030827841 0.030753408 -0.15617439 0.061115857 -0.12261276 -0.019439157 -0.050254464 0.015230513 -0.04139312 0.19318199 -0.10585637 -0.011256659 0.031538364 0.0584515 -0.0389884 -0.0644343 0.019283066 -0.17162524 0.058914986 0.019483257 0.011744787 0.06417062 -0.092024945 -0.029655628 -0.08932323 0.06301075 0.15558657 0.18897189 0.0035773474 -0.11883955 0.002685304 -0.016668862 -0.14304332 0.037389148 0.03195863 -0.067174956 -0.0009946866 -0.14580633 0.0632174 -0.03975185 -0.08493904 -0.015436227 -0.035454728 -0.04551322 -0.056895006 -0.033848632 -0.046581354 -0.027412537 -0.023045706 -0.015994031 -0.0372311 -0.14354932 -0.026431073 -0.038507283 0.051226288 -0.10365206 -0.05709345 -0.24173136 -0.19046521 -0.07982706 0.07485184 0.0011547548 -0.1458497 -0.06542939 -0.011522134 -0.017142352 -0.04183487 -0.08378658 -0.09051179 0.05870619 0.024119793 0.04682783 -0.029877946 0.09501525 -0.07053761 0.059825655 -0.05854722 -0.059076753 -0.008724837 -0.20041448 0.049464665 0.01895035 -0.047108345 -0.0046400605 0.044064943 -0.17530984 -0.00028756564 0.022222985 0.051224057 0.066177614 0.039093137 0.04207181 -0.004911421 -0.01309989 -0.1609275 -0.119268775 0.18189181 -0.02866617 -0.19261993 -0.11369163 0.082555644 0.111292824 0.027869852 -0.23166934 -0.15914454 -0.030804088 0.08442731 0.07891218 -0.10461517 0.00691205 -0.06480628 -0.00088620745 -0.0037190388 -0.013338733 0.12690759 0.07779864 0.04266035 -0.018832019 -0.18803707 -0.01222682 -0.005080297 -0.06950929 -0.017670272 0.06821614 0.0035462466 0.042998847 -0.2265941 0.025061242 0.0031891766 0.080336966 0.0065793963 0.18167596 0.02318437 0.04299463 0.111883976 0.1673436 -0.035448305 -0.06972492 0.04687228 -0.010130597
White_throated_Sparrow 0.009120749 0.14652698 -0.030865887 0.013448901 -0.00765246 -0.10925271 0.07890265 0.24848038 0.012862415 -0.06721125 0.07194146 -0.033677142 -0.02408398 -0.06039087 -0.051319342 -0.03433329 0.08537602 0.03134323 0.0050481847 -0.038284417 -0.0638049 -0.0117566055 0.1021499 0.0051383297 0.057361357 -0.02813586 -0.15896466 -0.045266565 -0.042272195 -0.10292961 0.061526004 -0.03615099 -0.0017889137 -0.005212564 -0.056566425 0.046810407 0.013035783 -0.059231453 -0.025900273 0.003767418 -0.010314092 -0.0002446876 0.008241904 -0.0882454 0.045692585 0.1332423 0.07166163 0.014713885 -0.022484047 0.05408066 0.011160887 -0.01693704 -0.031641137 0.030321183 -0.069863774 0.16858338 0.044108126 0.04404576 -0.022330662 -0.01604761 -0.05833109 -0.11057816 0.0020195434 0.023870721 0.00957165 0.074035384 0.09008297 -0.024403172 -0.101454556 -0.036210727 0.0060323826 -0.018097978 0.079735324 -0.08008063 -0.0053008464 0.06291871 -0.094932966 0.008940467 -0.044532534 0.17975235 -0.050392903 -0.15300153 -0.019208567 0.209168 0.014024185 0.022414854 -0.11117309 0.06387472 0.14835201 0.03662615 0.18129933 -0.027140487 -0.0050278828 0.021369586 0.10258982 0.14606093 0.08286444 -0.041158676 -0.026984422 0.05016174 -0.029161401 -0.024700224 0.06698663 0.024264606 0.033932563 -0.08359885 0.026464153 -0.015491772 -0.10725902 0.0737103 -0.13768086 0.028411642 0.04039398 0.054139387 0.026332708 0.013245334 0.009114939 0.0027403657 0.121722855 -0.14337793 0.029164547 0.12584004 0.08071996 -0.021763947 -0.077732526 0.03882719 0.03156763 -0.09369866 -0.055938162 0.06884268 0.073422536 0.13139808 0.015617018 -0.07358537 0.024123186 0.08200825 -0.05608859 -0.05440222 -0.1186542 -0.15746665 0.008117708 -0.17170925 0.0028648826 0.04403219 0.014581193 -0.070564896 -0.12510063 -0.10212263 0.07200789 -0.034733493 0.032031704 -0.25779507 -0.07921155 -0.038668998 -0.0033865906 0.08936929 -0.12100766 -0.03326809 -0.020877544 0.150191 0.0036215223 0.02417116 -0.13771118 0.056676 -0.11978967 -0.015688421 -0.041110594 0.01840123 -0.043968186 0.18766885 -0.101606086 -0.014928521 0.029820789 0.055440657 -0.039671164 -0.055902842 0.022363817 -0.16004409 0.058937356 0.020594502 0.016509404 0.06388696 -0.0869369 -0.023555197 -0.07816052 0.058723487 0.15528713 0.18199857 -0.003090063 -0.11232896 -0.006227068 -0.016956503 -0.13346608 0.023584986 0.02829405 -0.06642604 -0.0031330248 -0.14594954 0.05277954 -0.034827963 -0.07210624 -0.017125206 -0.03673471 -0.038648713 -0.060942598 -0.034521 -0.038065832 -0.023304373 -0.022786677 -0.015082723 -0.028303022 -0.1330141 -0.03214668 -0.02932503 0.048383303 -0.10103513 -0.052810915 -0.22947282 -0.19259392 -0.07745486 0.076971985 -0.0013985821 -0.14870243 -0.060610022 -0.017208092 -0.022736376 -0.033093993 -0.08480762 -0.08217337 0.061430488 0.034515176 0.03752145 -0.024350354 0.08796973 -0.06285108 0.049549777 -0.048324578 -0.048847795 -0.0028045797 -0.18965788 0.052624427 0.019398121 -0.047997426 -0.0046788016 0.0451736 -0.16264005 0.0029554097 0.027086388 0.05885518 0.063061915 0.036935497 0.039143633 0.0041071423 -0.019817006 -0.15346779 -0.10602077 0.16561028 -0.025610074 -0.17608067 -0.103737034 0.08478088 0.09958791 0.033676997 -0.22187233 -0.16024172 -0.031279467 0.07750862 0.07919204 -0.101519845 0.0064985757 -0.058117293 -0.009055417 -0.0012333695 -0.007974442 0.11498087 0.07399425 0.037631184 -0.012119107 -0.18318598 -0.01003415 -0.0014072125 -0.058722783 -0.02090831 0.06555308 0.004151707 0.041560706 -0.21869974 0.015002297 0.0078993775 0.08404646 0.012399461 0.16609864 0.028417066 0.039887972 0.104343735 0.15086274 -0.034262296 -0.07278232 0.045408577 -0.011603541
Crested_Auklet 0.017579783 0.14812592 -0.023218185 0.0140200835 -0.009330742 -0.10554474 0.07719916 0.24841025 0.015548884 -0.06750083 0.07643912 -0.03557834 -0.025885927 -0.06251456 -0.05741331 -0.033268105 0.080643915 0.037531227 0.00085523556 -0.031494055 -0.070060775 -0.016252015 0.10822806 -0.0015833433 0.057879265 -0.02881456 -0.16755655 -0.05413354 -0.036821052 -0.08969832 0.059611633 -0.04095439 -0.0019652 -0.008439076 -0.049352173 0.052557405 -0.00020092358 -0.059385214 -0.014375134 0.0072496296 -0.004030822 -0.011611722 0.009527265 -0.08148628 0.044936802 0.12892334 0.071625434 0.007135651 -0.022292461 0.052452475 0.009250787 -0.015921216 -0.025658742 0.041623015 -0.078135155 0.16624384 0.05458748 0.043938495 -0.014972312 -0.020646079 -0.061406355 -0.11674959 0.0005651716 0.019361556 0.000407292 0.07976459 0.094374985 -0.01723088 -0.10091546 -0.03905333 0.0005168028 -0.028082956 0.07906126 -0.08099177 -0.012486901 0.056289043 -0.09708224 0.017469108 -0.033760756 0.18772489 -0.059220817 -0.15609664 -0.020668913 0.2032135 0.020811262 0.025005518 -0.11977533 0.061935674 0.15206252 0.043969184 0.1768805 -0.02660553 -0.003647939 0.007947186 0.109031625 0.14814332 0.08658015 -0.040436957 -0.039259486 0.047983333 -0.029821761 -0.030025462 0.06810778 0.030528275 0.021539772 -0.07167095 0.030022813 -0.024566218 -0.11168931 0.08134956 -0.13732098 0.022119356 0.049474154 0.050176956 0.015981806 0.00817408 0.01630298 0.0049806475 0.12741345 -0.14738096 0.027388077 0.13202354 0.08340183 -0.02125562 -0.07125677 0.040529326 0.036107305 -0.08238789 -0.056396075 0.06890432 0.07155852 0.120595336 0.025718385 -0.072786905 0.022742761 0.078756325 -0.05367 -0.046417635 -0.109661624 -0.16038956 0.00788958 -0.18099971 0.0074395887 0.048608735 0.005640976 -0.07218865 -0.13624072 -0.10811958 0.06842952 -0.043204807 0.03489327 -0.25845653 -0.08264023 -0.04975711 0.0061529507 0.096084565 -0.11728007 -0.03262697 -0.026680116 0.15092304 2.5448726e-05 0.024989117 -0.14747259 0.062148105 -0.13453287 -0.025027629 -0.043688666 0.029410744 -0.03941977 0.20264816 -0.10591972 -0.010488175 0.03330499 0.05679589 -0.040139645 -0.060437027 0.021993704 -0.16939312 0.05222884 0.027439957 0.016747296 0.06345139 -0.08782842 -0.021897305 -0.08782811 0.055544335 0.13905782 0.17933205 -0.0029544195 -0.1198317 -0.006648555 -0.024718892 -0.13098793 0.0306597 0.029430084 -0.06502732 -0.0047182473 -0.13187014 0.05903468 -0.038711466 -0.085228525 -0.016267251 -0.02944208 -0.037514824 -0.053082705 -0.03477891 -0.04229512 -0.02525182 -0.017936619 -0.025227884 -0.029118856 -0.14042507 -0.03233506 -0.030129002 0.060111277 -0.09326528 -0.058611535 -0.22699946 -0.18985797 -0.07242507 0.067085385 0.011455781 -0.15544519 -0.06258974 -0.007707354 -0.014437728 -0.042721372 -0.085835196 -0.08506772 0.05856063 0.031015392 0.045687906 -0.029409695 0.09589832 -0.07076341 0.052571967 -0.04417584 -0.051261127 0.0023634613 -0.19107917 0.045875836 0.017662091 -0.046861604 -0.019817699 0.04711954 -0.15455455 -0.0044922987 0.026504356 0.057538483 0.06266938 0.03881945 0.04702456 0.0018025249 -0.013191557 -0.15703496 -0.1062893 0.16027941 -0.028902756 -0.17995037 -0.10194653 0.07686031 0.11696132 0.019627068 -0.22735941 -0.15436453 -0.033936728 0.07970011 0.078550294 -0.1026442 0.010133063 -0.051918216 -0.010005626 0.0014276926 -0.011723002 0.12154564 0.07385437 0.042834163 -0.009719649 -0.17738017 -0.012880401 -0.0024803136 -0.072665356 -0.015668046 0.082831375 0.0007647604 0.05151601 -0.22542502 0.0075779427 0.0025409549 0.073986046 0.014047341 0.17576106 0.028663483 0.041973863 0.094839275 0.15989035 -0.03825781 -0.0685069 0.04446448 -0.002885518
White_crowned_Sparrow 0.0064606154 0.14490965 -0.028146984 0.014113151 -0.019886475 -0.105578706 0.08776838 0.25311303 0.018233169 -0.06844588 0.07039057 -0.03015271 -0.026557302 -0.07505247 -0.05917072 -0.038407862 0.08767365 0.03156884 -0.0017822932 -0.03119219 -0.06998307 -0.005287138 0.1043688 0.010962461 0.054840572 -0.028291214 -0.15623903 -0.05385845 -0.042837143 -0.10014346 0.05880227 -0.03846857 0.0018269428 -0.007860965 -0.048824307 0.051081665 0.010632465 -0.06910161 -0.026046941 0.0066216746 -0.009128118 -0.00040903877 0.006952649 -0.09586621 0.04503018 0.13355842 0.07342341 0.009199378 -0.017104218 0.047273055 0.019064749 -0.016186161 -0.026314 0.03389838 -0.07756388 0.16914937 0.04746018 0.0382935 -0.019410703 -0.011311719 -0.063458025 -0.11328519 0.0001463234 0.019732969 0.01140896 0.07823375 0.084800504 -0.025028244 -0.10730855 -0.038218565 0.011791911 -0.016535869 0.085604794 -0.08744417 -0.004158818 0.058921754 -0.08902362 0.012665416 -0.04652308 0.18398638 -0.060798384 -0.15411076 -0.014455392 0.20530741 0.0145198265 0.020341286 -0.11664784 0.067532085 0.14906956 0.04065627 0.18893172 -0.028945107 0.0026787524 0.015783766 0.1113764 0.1457403 0.089469306 -0.039829604 -0.03560258 0.055653848 -0.03306073 -0.018215442 0.07277717 0.024799587 0.033141136 -0.0859313 0.027061233 -0.022628168 -0.11007637 0.07082076 -0.13926274 0.025636593 0.04558618 0.059298355 0.021953082 0.014985322 0.008236268 0.011372696 0.13291124 -0.14684287 0.033484776 0.12594812 0.08154441 -0.024859184 -0.07704573 0.045324612 0.035799563 -0.09011093 -0.06373557 0.07374743 0.08023831 0.13336349 0.015915556 -0.07315251 0.027236493 0.081351005 -0.05330459 -0.044310372 -0.11253149 -0.15887703 0.014913268 -0.1777355 0.0059063355 0.04474379 0.007034666 -0.080476075 -0.12696669 -0.106558815 0.07510648 -0.04646925 0.026628777 -0.2591903 -0.07380622 -0.04261826 0.00030498576 0.09124221 -0.120477736 -0.028804675 -0.02393458 0.1574855 0.0036050358 0.026463453 -0.1389805 0.06922275 -0.12330285 -0.016851898 -0.03837473 0.016800433 -0.041957367 0.19775867 -0.10760141 -0.012791991 0.031303395 0.055944324 -0.035828788 -0.056385495 0.013313246 -0.15834703 0.0608903 0.019466095 0.016015446 0.06612229 -0.08668821 -0.02351427 -0.08702396 0.05801214 0.15722267 0.18208988 0.0020259018 -0.12067336 -0.007828569 -0.014251235 -0.13100573 0.018800173 0.02647985 -0.075922295 -0.0010933055 -0.14880197 0.05723347 -0.030254332 -0.07668151 -0.011662527 -0.036932077 -0.047105845 -0.05583647 -0.034409113 -0.037503477 -0.02146369 -0.020958627 -0.024156734 -0.035142835 -0.13558413 -0.030661833 -0.037747808 0.057066467 -0.09650083 -0.051880497 -0.23104344 -0.18719168 -0.08286292 0.07859381 0.0014888373 -0.1523242 -0.06354618 -0.023922253 -0.011051333 -0.040543687 -0.085450664 -0.08634211 0.066323556 0.03503688 0.030821122 -0.030656366 0.0914233 -0.06372971 0.053398374 -0.04927055 -0.052604698 -0.00810518 -0.18511471 0.046371747 0.020884296 -0.049620837 -0.017076219 0.053001117 -0.16327356 -0.0029383623 0.02172197 0.056905903 0.060325675 0.046091046 0.04599901 0.0049106083 -0.014959386 -0.1599538 -0.113815285 0.17104548 -0.02978128 -0.18602534 -0.10861016 0.07849326 0.10230292 0.028919252 -0.22302996 -0.15965362 -0.026243981 0.08177279 0.07451091 -0.09961444 0.0058404035 -0.060407937 -0.010560071 -0.0017229915 -0.013054165 0.11331812 0.075224034 0.044676155 -0.0048960927 -0.18802957 -0.009322588 -0.0040121926 -0.062202975 -0.016179115 0.07322335 0.005540453 0.04230029 -0.22968061 0.016331116 0.0033978936 0.07565352 0.02153006 0.17271012 0.021131258 0.025118297 0.10538181 0.15426905 -0.036184404 -0.07783749 0.04657862 -0.0021640859
Western_Gull 0.0069409185 0.16704357 -0.028488323 0.009874284 -0.010700746 -0.1183855 0.091008395 0.28470635 0.02292293 -0.080708325 0.08367578 -0.048743647 -0.03884985 -0.07747189 -0.063846454 -0.040449068 0.09069544 0.040820602 0.0053895093 -0.03379959 -0.08276111 -0.009726182 0.112057686 0.009034922 0.06886656 -0.026772838 -0.1755842 -0.048159834 -0.041966792 -0.108366035 0.066294625 -0.039319597 -0.020619862 0.004878472 -0.059420787 0.058666 0.022804234 -0.075467825 -0.016076311 -0.0007829028 -0.0068506217 -0.008973341 0.021469017 -0.09359866 0.053800117 0.14852285 0.07550189 0.010714126 -0.023508215 0.056771576 0.008385344 -0.02206969 -0.024105493 0.031920336 -0.08468011 0.1952642 0.059827406 0.048804432 -0.024316788 -0.019828863 -0.07843668 -0.13666624 -0.0012541137 0.023746135 0.007857885 0.092649356 0.08997225 -0.022026498 -0.11093069 -0.04880156 -0.00042662758 -0.019294009 0.09812943 -0.103003375 0.0016639438 0.07755965 -0.0969929 0.017631305 -0.045175657 0.20197265 -0.060916293 -0.1766042 -0.018779986 0.23629436 0.025779136 0.029815286 -0.13289642 0.066981405 0.17109305 0.047553133 0.2139783 -0.02595465 -0.013303806 0.017260814 0.12762645 0.17045137 0.11623629 -0.050043385 -0.026826669 0.059905242 -0.027228678 -0.02855047 0.079818755 0.022981517 0.03397656 -0.08495551 0.034606636 -0.025178112 -0.11883954 0.07385807 -0.15527199 0.032105226 0.04613513 0.06367167 0.022729088 0.011351493 0.0122467065 0.015202345 0.14218318 -0.17304604 0.028327614 0.14231959 0.086437784 -0.032514088 -0.091089286 0.03262805 0.03874519 -0.110460654 -0.06651118 0.07627192 0.0840494 0.14201519 0.013706583 -0.080921635 0.01758438 0.09798349 -0.06269395 -0.054867417 -0.12624034 -0.17723203 0.009342354 -0.20419149 0.016200785 0.05179523 0.012830502 -0.07994166 -0.14719291 -0.115194134 0.0871531 -0.044269074 0.029167805 -0.2971535 -0.07626882 -0.046479743 -0.013568542 0.1141959 -0.13559571 -0.034485035 -0.027648592 0.17202294 0.006602201 0.033550717 -0.16169687 0.07545243 -0.1434227 -0.038051195 -0.04552217 0.026999122 -0.044203695 0.22206895 -0.11112638 -0.016574368 0.037369132 0.0654352 -0.037468553 -0.07486236 0.019355325 -0.18419635 0.06463526 0.0211794 0.022322368 0.064155445 -0.10510396 -0.017505541 -0.083224185 0.07599471 0.1722524 0.20211205 0.00012951903 -0.12546861 -0.006842627 -0.01431889 -0.14116646 0.036208972 0.036113787 -0.07995865 -0.012653487 -0.15972361 0.06912478 -0.047268618 -0.08656247 -0.012239374 -0.032538645 -0.039975487 -0.06079862 -0.03278994 -0.039415468 -0.033013612 -0.027942061 -0.026868548 -0.035878044 -0.15842347 -0.036043316 -0.04792702 0.0616844 -0.11422432 -0.062245782 -0.26671466 -0.21584558 -0.090583324 0.07707935 0.0111549655 -0.16742359 -0.05927756 -0.017173836 -0.018316193 -0.040600013 -0.09535222 -0.095783144 0.06535009 0.028866319 0.03786296 -0.033584155 0.10145786 -0.075030304 0.05313158 -0.05721986 -0.0585395 0.003312251 -0.2131234 0.056964066 0.020752622 -0.058853205 -0.005760921 0.047099028 -0.17482004 -0.0017334061 0.026683858 0.062458877 0.07784461 0.040040605 0.045864426 -0.0054753795 -0.020437751 -0.17527704 -0.12062273 0.17969628 -0.028023098 -0.21178076 -0.12160612 0.08337157 0.12625867 0.028799452 -0.24859722 -0.18679099 -0.038614124 0.094432786 0.097517855 -0.11194033 0.012513484 -0.060877744 -0.0013707813 -0.0020602483 -0.020752389 0.13831483 0.083968274 0.033698156 -0.012881559 -0.20171009 -0.018754927 -0.0032748831 -0.07325678 -0.022761665 0.08776028 0.011437223 0.06523744 -0.262967 0.012736498 0.0077597615 0.08681773 0.00857012 0.18907763 0.032955118 0.035902712 0.11787083 0.17367215 -0.03939381 -0.09079468 0.042339448 -0.012463112
Palm_Warbler 0.023520596 0.13609272 -0.02925195 0.01943765 -0.01049322 -0.10973049 0.07784775 0.24425992 0.023443602 -0.057609037 0.07519368 -0.04156094 -0.025681682 -0.060530648 -0.055104446 -0.024161011 0.07577264 0.029362246 0.013616863 -0.046714988 -0.07483882 0.0012969851 0.10549553 0.0066356296 0.048336983 -0.012971099 -0.1508715 -0.0514318 -0.045433696 -0.090456896 0.065589875 -0.037682254 -0.0055091595 0.0016909584 -0.050091807 0.060032547 -0.0032358107 -0.07085354 -0.02247124 -0.0028744447 -0.004219252 -0.0151963495 0.012430013 -0.07662918 0.051938698 0.1417633 0.056067873 0.005579518 -0.025394792 0.044262473 0.024713019 -0.013990394 -0.027164482 0.041066226 -0.071576774 0.16664597 0.042664286 0.03303937 -0.023208229 -0.017159395 -0.06094548 -0.11761212 0.008940922 0.023789095 0.00833536 0.08484994 0.08352162 -0.012678922 -0.10150925 -0.034197893 -0.010772019 -0.022998648 0.07376869 -0.085608646 -0.0012938641 0.06444565 -0.09352183 0.017102866 -0.0422635 0.17641817 -0.058881048 -0.15269321 -0.029193666 0.19677736 0.02487939 0.02216159 -0.098820485 0.070885025 0.1480007 0.030477192 0.18021755 -0.031451024 -0.009553331 0.02832157 0.09847341 0.14055194 0.09132385 -0.039146855 -0.042699605 0.056186825 -0.017845463 -0.028699877 0.070789926 0.024073359 0.011357072 -0.07510973 0.034652308 -0.037687108 -0.09411258 0.07982143 -0.13429864 0.027440637 0.036601376 0.04791691 0.011365093 0.014552884 0.008676705 -0.0047118254 0.124385074 -0.15595093 0.02896675 0.129159 0.0674954 -0.029914979 -0.07571421 0.03778459 0.035879575 -0.090867944 -0.057088424 0.066005856 0.075592585 0.13586721 0.019357923 -0.06010039 0.029044572 0.09257991 -0.04202599 -0.04783263 -0.12545453 -0.15043549 0.006911439 -0.17567353 -0.007447922 0.05021672 0.007238122 -0.0784133 -0.12424795 -0.09054426 0.07101098 -0.03931701 0.021427039 -0.25068897 -0.063350774 -0.043913767 -0.014573918 0.10489184 -0.11913363 -0.02996101 -0.019774327 0.14436485 0.008708557 0.025354676 -0.131394 0.062857166 -0.11858288 -0.027545901 -0.04124384 0.031000495 -0.04527543 0.19131117 -0.09399906 -0.012021277 0.023354648 0.061891586 -0.038245108 -0.06626149 0.013583843 -0.1657566 0.052847955 0.0330754 0.021332724 0.0553694 -0.096753515 -0.0115530165 -0.07273394 0.058269486 0.1574595 0.18003263 0.0065605543 -0.104199305 -0.0026554607 -0.012721854 -0.1286224 0.024592018 0.011695138 -0.06518994 0.0074804467 -0.14938228 0.06964768 -0.043109894 -0.076807484 -0.0059733824 -0.029976906 -0.03483414 -0.049626615 -0.037586577 -0.03712465 -0.029049758 -0.020604655 -0.02447804 -0.032560717 -0.14144486 -0.0344747 -0.042524807 0.0467221 -0.10041594 -0.06060414 -0.22967066 -0.1845497 -0.08348985 0.0646514 0.013859701 -0.14301184 -0.055721622 -0.01592634 -0.0072391867 -0.03669249 -0.08274702 -0.08011393 0.05129083 0.028889377 0.047689624 -0.02609098 0.105245374 -0.07617432 0.04945515 -0.042182658 -0.046316005 0.0050355727 -0.1891997 0.055638522 0.018184515 -0.054658264 -0.008450515 0.051054906 -0.1478728 0.0067294533 0.0078924 0.052680492 0.06586647 0.036109436 0.043069996 0.009274451 -0.018928623 -0.1626211 -0.10867317 0.15849285 -0.036020037 -0.17527808 -0.113106534 0.07859027 0.11146386 0.025958695 -0.22566365 -0.16251723 -0.033671018 0.072611816 0.082069874 -0.1003896 0.0051902155 -0.06367967 0.00470078 0.01901997 -0.0045888014 0.112041235 0.08183351 0.033323206 -0.01714313 -0.18080753 -0.013990224 0.0006377631 -0.070063844 -0.010203508 0.07495281 0.020830113 0.04160183 -0.20745705 -0.0017254247 -0.005454894 0.06877494 0.013602415 0.16818431 0.034913853 0.034357414 0.114420235 0.15064666 -0.034013283 -0.07372065 0.03615032 0.0020915088
Mockingbird 0.010907417 0.15213116 -0.03835055 0.0069241645 -0.005076883 -0.10842216 0.086256355 0.2539893 0.0142359445 -0.07260262 0.08284913 -0.03429924 -0.031904105 -0.06931552 -0.05887633 -0.044314135 0.08813973 0.032713708 0.0125824 -0.04320857 -0.069778025 -0.0126484 0.10634984 0.003368943 0.057588104 -0.03593283 -0.15415388 -0.05577917 -0.04434696 -0.101225436 0.0641649 -0.044292886 0.00078232476 -0.0060864454 -0.05316655 0.045593478 0.007959889 -0.06411412 -0.027729154 0.00913793 -0.0066398606 -0.0124664465 0.01163564 -0.0897407 0.046944514 0.14531448 0.07414328 0.01323324 -0.015870737 0.05762235 0.0072696637 -0.015661605 -0.03363422 0.04278552 -0.07555499 0.17574069 0.046676137 0.04012013 -0.011451158 -0.019429268 -0.054355104 -0.11509759 -0.005033267 0.019936131 0.0048987223 0.07736433 0.098470695 -0.0251196 -0.1089736 -0.04086525 0.0027416213 -0.024969617 0.080538265 -0.08102117 -0.006415666 0.059917744 -0.101361975 0.017722318 -0.045654297 0.1935244 -0.055079926 -0.15637283 -0.021294478 0.21022576 0.021614946 0.018924376 -0.11655025 0.064880766 0.15885954 0.041070778 0.18195611 -0.0288282 -0.013354939 0.02063045 0.09797626 0.15109675 0.090154365 -0.046626262 -0.034583766 0.0588831 -0.03361658 -0.035426553 0.06584298 0.031420212 0.040562805 -0.0907809 0.027395783 -0.01779875 -0.11827744 0.07220441 -0.13982706 0.019769868 0.046487324 0.057051376 0.031099305 0.01402506 0.008241411 0.002319735 0.12869707 -0.14392686 0.028691515 0.12950252 0.07393453 -0.020551486 -0.07273959 0.03499198 0.03282366 -0.092254095 -0.06247859 0.07241845 0.07663551 0.13277574 0.012899188 -0.07544254 0.018653879 0.089782104 -0.05788181 -0.055626273 -0.12063753 -0.1674033 0.007497801 -0.17449713 0.008535412 0.040570192 0.007827812 -0.073845685 -0.12424717 -0.10324028 0.06645441 -0.039668564 0.034026574 -0.26744393 -0.07344162 -0.04561193 -0.010960893 0.09091772 -0.122934334 -0.030192256 -0.020344036 0.15871632 0.008630691 0.027865268 -0.1517501 0.055213615 -0.12423513 -0.0146481795 -0.04853433 0.020373952 -0.03994612 0.1877764 -0.10852881 -0.012593904 0.024777232 0.055855535 -0.033343703 -0.064265124 0.016794233 -0.16342743 0.054892626 0.017782856 0.013322616 0.06404472 -0.08788327 -0.025866304 -0.085936226 0.06370613 0.15163618 0.18255143 0.0020191076 -0.12298845 0.0008483594 -0.021676982 -0.1382867 0.034251146 0.030050458 -0.06372539 0.002588762 -0.14932665 0.0585011 -0.03895138 -0.08418793 -0.0146869 -0.032131806 -0.038418695 -0.06054425 -0.036051128 -0.04974081 -0.024658764 -0.017441783 -0.02437455 -0.031025365 -0.14167546 -0.029071322 -0.03264056 0.048426617 -0.10098855 -0.05761469 -0.23794563 -0.18949203 -0.075180784 0.070823476 0.00055321335 -0.14736897 -0.056010813 -0.01185376 -0.00820765 -0.043733418 -0.07636755 -0.08746849 0.055461973 0.020949682 0.0450844 -0.031874258 0.0973778 -0.065233625 0.055548094 -0.051752765 -0.060442384 -0.006172759 -0.19512759 0.04430043 0.022646083 -0.047415517 -0.008133499 0.0463663 -0.17250866 0.00033857548 0.02296312 0.06050246 0.067889586 0.034650814 0.043900065 -0.0023602224 -0.018077109 -0.15798764 -0.11790574 0.17732427 -0.034648433 -0.18783212 -0.11187181 0.08080485 0.11077713 0.030489359 -0.22124405 -0.16209191 -0.03563288 0.08475827 0.081965506 -0.09767086 0.013635295 -0.055859968 -0.009331367 -0.003278611 -0.00936664 0.12508869 0.08379388 0.03413062 -0.018464098 -0.18076077 -0.015224958 -0.0041857027 -0.064559124 -0.010572341 0.063435495 0.0037226537 0.03749448 -0.22228265 0.020866416 0.002381762 0.08022481 0.012707074 0.1768516 0.028673723 0.040234663 0.104616 0.1637912 -0.034184244 -0.07049351 0.03738237 -0.006353687
Myrtle_Warbler 0.016010799 0.15625438 -0.03766235 0.015472191 -0.009342566 -0.11757486 0.08648218 0.26651317 0.021599924 -0.072857715 0.08228342 -0.041465294 -0.026715212 -0.07526276 -0.064618014 -0.033316143 0.08966395 0.031065598 0.011741672 -0.04638677 -0.08555282 -0.003279793 0.112615965 0.00088066794 0.05715951 -0.018959435 -0.17413971 -0.056199454 -0.044061586 -0.103316166 0.06716297 -0.03775281 -0.012029179 -0.005956505 -0.052419987 0.063900016 -0.0011614409 -0.0776161 -0.02383367 -0.0029355483 -0.0059685702 -0.0058949534 0.008507968 -0.093926825 0.055970374 0.1471933 0.06675503 0.0038935412 -0.028197307 0.048422374 0.014124157 -0.017314201 -0.024612145 0.047101945 -0.07890531 0.18025956 0.042707767 0.0444095 -0.026522221 -0.013285365 -0.06472981 -0.12972066 0.013444331 0.022691594 0.008677382 0.08361652 0.09744388 -0.019511797 -0.108939454 -0.03989405 -0.0043601417 -0.017234253 0.08068381 -0.09144648 -0.011289903 0.07092834 -0.10142704 0.013383048 -0.043122374 0.1923881 -0.06573008 -0.16446812 -0.025006484 0.21752441 0.023539715 0.019104628 -0.1129054 0.07816228 0.15947047 0.042351633 0.19122118 -0.030764995 -2.4902403e-05 0.025184851 0.11272083 0.148708 0.10369065 -0.046751734 -0.03403304 0.057507064 -0.022993527 -0.034173567 0.074755214 0.025732517 0.026039427 -0.08282655 0.03743329 -0.035851482 -0.11362712 0.08471849 -0.14126979 0.025756301 0.0430845 0.05550731 0.015793966 0.021725507 0.011594409 2.9838913e-05 0.13643904 -0.16332282 0.02463236 0.14065325 0.072946616 -0.028684607 -0.088914596 0.04369144 0.046929717 -0.09577722 -0.06104227 0.06972158 0.08601863 0.13821043 0.020355709 -0.070994 0.030646887 0.09926359 -0.050187133 -0.05737229 -0.12928323 -0.17106491 0.015104886 -0.19427295 -0.0031896164 0.053564653 0.008458372 -0.07813771 -0.14078441 -0.10317809 0.07608171 -0.049873445 0.029606737 -0.27543005 -0.07235523 -0.043019563 -0.014396852 0.11169054 -0.12610312 -0.027228346 -0.02619983 0.15358526 3.6998383e-05 0.029343318 -0.15092687 0.070543066 -0.13181548 -0.02499835 -0.04479016 0.027702792 -0.04381134 0.20902985 -0.10732265 -0.016005706 0.02806952 0.068987966 -0.038689863 -0.07290662 0.016832642 -0.17331202 0.060702674 0.031500116 0.018670904 0.062358186 -0.100807026 -0.018465199 -0.08773588 0.069648035 0.16864522 0.19718982 0.0077978265 -0.11799199 -0.011367619 -0.01074624 -0.14232726 0.030739224 0.019737024 -0.07225325 0.00079722336 -0.1665471 0.07401479 -0.038732834 -0.08527972 -0.009094728 -0.030588998 -0.04147628 -0.05875321 -0.03367903 -0.041680794 -0.03592424 -0.025206825 -0.019925013 -0.030051501 -0.15241164 -0.035093065 -0.0457787 0.05698239 -0.112087496 -0.06047762 -0.24845463 -0.20390935 -0.08796358 0.07464296 0.007939663 -0.16260897 -0.06338706 -0.019863646 -0.011483951 -0.037084334 -0.09000497 -0.09359616 0.061170634 0.033058226 0.04199928 -0.03278387 0.10713194 -0.07911197 0.054515697 -0.046751592 -0.05342269 0.0020000336 -0.20306094 0.05278124 0.016465316 -0.05671932 -0.012712129 0.054328036 -0.16787499 0.010087115 0.019187842 0.05869429 0.07270925 0.04760279 0.039629083 0.006437458 -0.019512929 -0.17169207 -0.11283673 0.17430134 -0.040537506 -0.1961507 -0.12503941 0.08294954 0.12126113 0.033563253 -0.244051 -0.1727006 -0.027822586 0.08120143 0.090080954 -0.10857619 0.008635304 -0.061974473 0.00042096069 0.013245338 -0.011891812 0.123973414 0.08995616 0.0317124 -0.011329316 -0.19221249 -0.016411042 -0.003155198 -0.077442884 -0.017480472 0.084490776 0.015899794 0.05173788 -0.23950493 0.0019347788 0.005775267 0.08626122 0.016511166 0.18686946 0.036691338 0.036131788 0.12230665 0.16084316 -0.03941506 -0.08402806 0.043656528 -0.0044404357
Red_eyed_Vireo 0.01173293 0.13031438 -0.027712187 0.01202119 -0.013496065 -0.09950295 0.07930061 0.23262739 0.014903151 -0.057838473 0.0628672 -0.029547786 -0.027974421 -0.06496417 -0.054784916 -0.023066027 0.07472284 0.027884532 0.0020858434 -0.03207572 -0.07007852 -0.002952732 0.0931575 0.0036775111 0.057453558 -0.019651037 -0.1537315 -0.039658666 -0.037514456 -0.08889017 0.054467626 -0.03406633 -0.011580221 0.0014970467 -0.051757306 0.048166394 0.010664212 -0.05687993 -0.016167894 0.0035212203 -0.013739735 -0.005333173 0.016644869 -0.07693393 0.05191199 0.12689206 0.060418684 0.01629591 -0.024013758 0.04659721 0.007364627 -0.012911058 -0.018868081 0.03023743 -0.07336063 0.15650788 0.047790375 0.042934705 -0.023981553 -0.011848006 -0.06316223 -0.117871284 0.00063405244 0.01890726 0.013411721 0.07368733 0.083205886 -0.015616135 -0.09381229 -0.041257743 0.008104542 -0.014473781 0.07906759 -0.07430477 -1.3547185e-05 0.056128275 -0.09162393 0.018840559 -0.03026846 0.16409722 -0.050419834 -0.14068937 -0.015706796 0.19359149 0.02631034 0.01905566 -0.10239296 0.065644056 0.14421763 0.03375813 0.17312893 -0.013527692 -0.008526063 0.01290459 0.10068699 0.13616803 0.088432476 -0.04328229 -0.021384086 0.057932008 -0.024102807 -0.026027644 0.06832909 0.02564634 0.03281331 -0.06973657 0.026244162 -0.01573283 -0.107340135 0.071968526 -0.12648147 0.028855572 0.035676662 0.047085643 0.023878254 0.007879289 0.009847615 0.0056950916 0.12752764 -0.13947049 0.021944935 0.12501308 0.064485334 -0.020144323 -0.07516342 0.025754554 0.033493217 -0.091651775 -0.056619313 0.0638732 0.06602162 0.1172715 0.022525962 -0.07329418 0.020097207 0.07922757 -0.054724846 -0.055486005 -0.105330005 -0.15241899 0.013139333 -0.16752516 0.0071215704 0.047667865 0.009988308 -0.06774799 -0.12299535 -0.09329565 0.06676748 -0.034996882 0.024925968 -0.23703176 -0.0745656 -0.03546568 -0.0028623026 0.091296606 -0.11062367 -0.02546609 -0.013346455 0.1386875 0.0040558754 0.029595584 -0.13209264 0.050733723 -0.12270488 -0.024456229 -0.04148548 0.018243423 -0.040765245 0.17729372 -0.08477504 -0.0027210754 0.033331078 0.05375915 -0.024805643 -0.056701206 0.021969358 -0.15083624 0.046866562 0.018356953 0.018164674 0.06401184 -0.083657645 -0.026187694 -0.0706858 0.057473034 0.14059092 0.17438322 0.0038303996 -0.1074812 -0.008190254 -0.013056804 -0.12751716 0.030127723 0.029803228 -0.061097577 -0.0027518466 -0.13693321 0.058321822 -0.040643457 -0.06628668 -0.011628389 -0.030661386 -0.03223341 -0.05382259 -0.031207604 -0.03670284 -0.021040106 -0.018714845 -0.021425731 -0.03162109 -0.13289545 -0.0345051 -0.03536694 0.05029542 -0.09259379 -0.05136568 -0.2183179 -0.17345703 -0.07602984 0.0674259 0.0046940097 -0.13199715 -0.056176323 -0.017318277 -0.018186169 -0.024335207 -0.074799165 -0.07817862 0.058085773 0.033789344 0.027718198 -0.018966822 0.089281656 -0.059563927 0.04730025 -0.038812753 -0.054543097 0.0051205736 -0.17914969 0.03987703 0.021662353 -0.049431786 -0.005152269 0.04876627 -0.14403147 0.0058034933 0.015369185 0.057049833 0.057761524 0.04044512 0.04602835 -0.003898662 -0.0151114715 -0.1509043 -0.10157772 0.15846997 -0.024708904 -0.16847813 -0.09909827 0.0735241 0.102331474 0.022120291 -0.20273754 -0.15132698 -0.026909055 0.07081468 0.07684618 -0.09344954 0.0063414564 -0.056077324 -0.010744378 -0.005454006 -0.003044822 0.10478832 0.07111824 0.027958754 -0.014982854 -0.17804365 -0.008253754 -0.0025443065 -0.054901715 -0.01192216 0.07010945 0.017819634 0.048811287 -0.2121867 0.008539349 0.0020703874 0.078150295 0.01026547 0.15452261 0.027628066 0.029181918 0.10481937 0.14437293 -0.03184645 -0.07350661 0.03983073 -0.011363765
Rufous_Hummingbird 0.0047362274 0.14821757 -0.036576185 0.013885637 -0.0021768133 -0.10138909 0.08554447 0.2521949 0.015709898 -0.069468915 0.08057489 -0.027629437 -0.031852473 -0.06436521 -0.059056245 -0.040736545 0.08959331 0.032539982 0.008810142 -0.039584994 -0.061866485 -0.012659712 0.10104536 0.006221781 0.06403189 -0.03246829 -0.1506384 -0.052094728 -0.045018326 -0.10092603 0.05860984 -0.0367851 -0.0045120553 -0.009479986 -0.05127596 0.050440732 0.016137447 -0.06807235 -0.029501367 0.0050577438 -0.01003603 -0.009699099 0.014986261 -0.08718314 0.05095546 0.14099747 0.0703783 0.018327948 -0.014847108 0.05175574 0.008787549 -0.010912988 -0.033667203 0.041109707 -0.074420445 0.16958585 0.049636334 0.0417681 -0.014262934 -0.02097299 -0.05480992 -0.11128468 0.0013185088 0.012758951 0.002179219 0.07932125 0.093485214 -0.02347764 -0.10538199 -0.04196815 0.00032318963 -0.02072122 0.074772276 -0.07881891 -0.0012197373 0.06155304 -0.09952704 0.014977345 -0.04494858 0.18276584 -0.05335151 -0.15069897 -0.0188307 0.20153438 0.02474931 0.025692867 -0.10878683 0.058564886 0.15409341 0.041863844 0.18212424 -0.023409704 -0.0071593537 0.020056456 0.10284829 0.1499515 0.083066575 -0.049204256 -0.024429793 0.05177424 -0.03417222 -0.027713455 0.06648619 0.02387413 0.038003556 -0.0898216 0.028116345 -0.020053312 -0.1133048 0.0743947 -0.1362787 0.025330756 0.048346154 0.04880723 0.03134516 0.008879707 0.0062222867 0.0030354646 0.12615639 -0.14220734 0.03077433 0.1279369 0.07922743 -0.013395059 -0.076088175 0.03265997 0.03837296 -0.092499025 -0.053365614 0.06863195 0.07877272 0.12689398 0.014537021 -0.06882717 0.020697597 0.08961676 -0.04937801 -0.04739124 -0.11861085 -0.16613173 0.015596397 -0.16978835 0.004100055 0.034857664 0.006990647 -0.07102005 -0.12772149 -0.09739458 0.06983834 -0.044944335 0.03023474 -0.26227155 -0.07724606 -0.03950993 -0.01232347 0.09037885 -0.12399072 -0.03442841 -0.02181001 0.15578072 0.013179681 0.030539418 -0.14820397 0.052677818 -0.11944614 -0.012987172 -0.03869919 0.015942205 -0.045133322 0.18488249 -0.10902424 -0.008406284 0.025810048 0.06186049 -0.038699213 -0.05687295 0.013655068 -0.1575443 0.053004015 0.01476414 0.017041696 0.05628343 -0.08811009 -0.019585397 -0.08870141 0.0662076 0.14870308 0.17541274 -0.0002665051 -0.11574994 1.3015308e-05 -0.017840266 -0.13519199 0.029385945 0.03600664 -0.069948725 0.00045931002 -0.14556918 0.0539524 -0.035516888 -0.07783968 -0.017764175 -0.03458046 -0.04193331 -0.05344429 -0.038403913 -0.049851567 -0.023584852 -0.016218401 -0.015487525 -0.032668434 -0.1341422 -0.033577222 -0.035249125 0.04817819 -0.098977156 -0.05601343 -0.23084787 -0.18885732 -0.07446601 0.075199306 0.0066199806 -0.14521137 -0.056241963 -0.012606723 -0.013308724 -0.041712545 -0.078946136 -0.08363704 0.05988867 0.020561347 0.04075425 -0.030522887 0.089119114 -0.066055745 0.05647291 -0.052988596 -0.05292647 -0.00841932 -0.18379973 0.046306316 0.021514546 -0.04707131 -0.0033833238 0.049250662 -0.16990702 0.003212454 0.022335436 0.059503376 0.06415942 0.033162724 0.04214111 -0.0045944895 -0.012887487 -0.14850476 -0.11052244 0.17559202 -0.031998318 -0.17902592 -0.10894315 0.07127399 0.10358833 0.02731733 -0.22289844 -0.15588905 -0.032814305 0.07884208 0.07550138 -0.09416587 0.011111512 -0.061610848 -0.009413908 -0.00783884 -0.007402336 0.120616674 0.081170306 0.041746687 -0.017609244 -0.18286529 -0.017099284 -0.00021389549 -0.06667399 -0.01634728 0.06705934 -0.00018313176 0.04282663 -0.22547857 0.021743989 0.00035379248 0.08263767 0.007232544 0.16896728 0.021738997 0.039584156 0.10550181 0.15960519 -0.033938337 -0.06744816 0.036875688 -0.011904451
Yellow_bellied_Flycatcher 0.0066097695 0.16165721 -0.031734228 0.009433538 -0.0073099034 -0.12346205 0.09665094 0.27356118 0.035680886 -0.06452884 0.08622266 -0.03506959 -0.024076952 -0.08363291 -0.061507758 -0.04419449 0.08434035 0.038868975 0.012192437 -0.04276873 -0.071925916 -0.0026124455 0.10629857 0.0036573266 0.062291794 -0.016879695 -0.17807713 -0.041688137 -0.04030106 -0.11012776 0.064525485 -0.038376622 -0.018886043 0.005187686 -0.048975315 0.059169605 0.012527248 -0.07671096 -0.011783489 0.012759258 -0.014134826 -0.023004388 0.004786974 -0.101849854 0.047917865 0.13748801 0.08154537 0.0023456381 -0.023638677 0.060362138 0.007859716 -0.020150544 -0.02884186 0.04360248 -0.08051389 0.18297283 0.059757933 0.054979075 -0.021493386 -0.010811934 -0.072401926 -0.13210277 -0.00024199313 0.0066330717 0.0031474694 0.094471045 0.090904154 -0.02298067 -0.10784033 -0.039022636 0.0005121041 -0.02355807 0.09844126 -0.08459845 -0.021318858 0.06598582 -0.103190735 0.010134357 -0.0499074 0.21216893 -0.06323385 -0.17268285 -0.022828292 0.21426348 0.028739674 0.03184862 -0.13471697 0.06683088 0.16554758 0.046863627 0.19427794 -0.036785048 -0.0062828474 0.019880457 0.1130599 0.14973977 0.11538102 -0.045527622 -0.04348928 0.05335159 -0.038837854 -0.028886287 0.08360459 0.031204307 0.033305902 -0.08586975 0.02228722 -0.022975875 -0.103864975 0.084874965 -0.14766477 0.029326588 0.038545202 0.069082074 0.024724716 0.02207276 -1.7100774e-05 0.008347157 0.14049871 -0.16116324 0.02298615 0.13272548 0.0810755 -0.015904356 -0.08942647 0.042163607 0.041207913 -0.0953512 -0.056409124 0.07366288 0.07325582 0.13415599 0.0068305605 -0.0768623 0.026143534 0.08065019 -0.043954622 -0.040482905 -0.12191947 -0.16839448 0.006797624 -0.19864437 -0.0046526585 0.044222035 0.010156258 -0.08073664 -0.14055559 -0.113953695 0.088675335 -0.040916175 0.02637671 -0.26361492 -0.082311794 -0.05500306 -0.007409462 0.10009087 -0.1287971 -0.041569967 -0.024997473 0.16349386 -0.010250493 0.035749324 -0.1540473 0.06568069 -0.14542115 -0.0396908 -0.0411479 0.03581252 -0.042500783 0.22542408 -0.10711762 -0.0108265 0.017396094 0.063534945 -0.037887935 -0.07239185 0.03441523 -0.17594272 0.050794724 0.030914573 0.021184647 0.05507503 -0.0937005 -0.013861142 -0.08436621 0.05792111 0.1643207 0.20740488 0.0020458503 -0.12920411 -0.014793308 -0.010530575 -0.14239994 0.034359228 0.027122995 -0.061670136 -0.0032339778 -0.14793846 0.0745625 -0.026147079 -0.097596206 -0.0006855374 -0.034204878 -0.046178274 -0.05488091 -0.039626222 -0.03812308 -0.03362669 -0.022350391 -0.027073756 -0.023575611 -0.14442848 -0.031865682 -0.042323496 0.06365065 -0.09951851 -0.062449407 -0.2539467 -0.20841545 -0.08662622 0.07251632 0.006706025 -0.16363662 -0.06545667 -0.018460214 -0.007036817 -0.0396899 -0.09264459 -0.08862308 0.06574781 0.03266056 0.043392073 -0.03735039 0.10146139 -0.08253614 0.057065878 -0.05653863 -0.0564346 0.00063476025 -0.2188552 0.055613313 0.015003149 -0.046966325 -0.020020785 0.05313279 -0.17576751 0.003916029 0.021418056 0.061666578 0.081179045 0.04642648 0.053529706 0.011244082 -0.011144236 -0.17156295 -0.110571265 0.17623572 -0.03470313 -0.2003815 -0.123235546 0.08644719 0.10945949 0.034898262 -0.2378433 -0.1652904 -0.034718253 0.09176241 0.077126496 -0.09661689 0.014207062 -0.050409604 -0.006983528 0.002083652 -0.017154183 0.12101506 0.08993574 0.04467596 -0.005561637 -0.19212984 -0.0073084407 0.00406526 -0.07723819 -0.015722353 0.066595 0.012604436 0.046494726 -0.24649261 0.018675344 0.00930025 0.08752796 0.02211995 0.18120305 0.022523817 0.028915528 0.117376305 0.16834676 -0.040435415 -0.07503623 0.04581347 0.0129361665
Yellow_Warbler 0.018392375 0.1488847 -0.029919626 0.011734688 -0.00562115 -0.111568704 0.08645646 0.2502602 0.024597222 -0.0697026 0.077790506 -0.04013722 -0.02810771 -0.06598157 -0.0642647 -0.030345699 0.080701165 0.036037322 0.0027141618 -0.0407166 -0.08032821 -0.0019178796 0.10656976 0.004223825 0.054199506 -0.016244693 -0.16022451 -0.053603664 -0.04476262 -0.0937898 0.0652456 -0.041042604 -0.004697841 -0.005961521 -0.05023609 0.060520433 0.0036724117 -0.06888488 -0.021957917 0.0016549231 -0.0072085387 -0.006768059 0.0058528967 -0.089866795 0.051131584 0.14049321 0.070476964 0.006291088 -0.018986652 0.046450302 0.016180089 -0.018759863 -0.02241811 0.04437386 -0.077807926 0.17336635 0.04256711 0.041214474 -0.021406727 -0.017517922 -0.059900757 -0.12531407 0.0073129022 0.026172109 0.011196203 0.079123 0.09363066 -0.025583748 -0.10488183 -0.039768707 -0.0012037732 -0.017888138 0.083265014 -0.086665764 -0.008244943 0.06646355 -0.09799565 0.0115209995 -0.04190828 0.18276618 -0.060100947 -0.15594095 -0.022179786 0.20206217 0.019706266 0.019045224 -0.10925992 0.07163252 0.14998433 0.041791067 0.18557586 -0.022936761 -0.0015136406 0.022789286 0.110435225 0.14300647 0.09675478 -0.044837724 -0.03327427 0.052921716 -0.028154332 -0.026984954 0.0729229 0.026941922 0.02738629 -0.07832428 0.030691013 -0.03161845 -0.10161486 0.07870185 -0.14097837 0.022725001 0.043786813 0.056269094 0.014931273 0.019796547 0.0070379823 0.0016737806 0.134441 -0.15420634 0.025272438 0.13306594 0.07570171 -0.026554324 -0.08221607 0.037440576 0.044437986 -0.09089942 -0.058271747 0.06668979 0.080157466 0.13145424 0.019916043 -0.06500924 0.02168543 0.09019566 -0.054572996 -0.05594189 -0.11723409 -0.15869696 0.014315478 -0.18345033 0.004545696 0.043185923 0.006866894 -0.07732133 -0.13117896 -0.1005948 0.06865326 -0.04558643 0.030170647 -0.25846678 -0.06979745 -0.04401637 -0.008719166 0.10338364 -0.11804727 -0.029311446 -0.026207969 0.14926744 0.006415605 0.028698524 -0.14390494 0.06552957 -0.12423347 -0.02727932 -0.042158995 0.02486053 -0.043860137 0.19430692 -0.09846828 -0.014107833 0.026014704 0.06190363 -0.03160413 -0.060555506 0.014126791 -0.1665477 0.059391584 0.027569493 0.015945451 0.05926425 -0.09491798 -0.013998263 -0.07983173 0.060539518 0.160174 0.1841327 0.0038254815 -0.11843683 -0.0055690357 -0.013504306 -0.13311715 0.028498748 0.021959536 -0.06804365 -0.001025907 -0.15311028 0.06845174 -0.036083285 -0.07921301 -0.0082608685 -0.03323899 -0.03802015 -0.054130856 -0.031170545 -0.04514514 -0.027948527 -0.02280427 -0.020866914 -0.033687774 -0.14216824 -0.032408353 -0.03852174 0.052914303 -0.101810135 -0.05746949 -0.23225483 -0.18780565 -0.07930589 0.0687996 0.0035127716 -0.14627132 -0.06127304 -0.013909206 -0.009728773 -0.033052705 -0.08645941 -0.08917067 0.058294043 0.029104771 0.040824186 -0.029679978 0.10383847 -0.0687122 0.048842996 -0.043045133 -0.05527205 -0.0012862277 -0.19050036 0.04734226 0.021760477 -0.054229066 -0.018179128 0.045076773 -0.15902536 0.006363767 0.023412548 0.05982839 0.06719853 0.041708935 0.038999498 0.0064017572 -0.017120175 -0.15915841 -0.10998228 0.16698453 -0.034716535 -0.18030529 -0.11489145 0.07937931 0.11053559 0.02949547 -0.22807285 -0.16685958 -0.03325869 0.07480939 0.08136951 -0.10279535 0.013629589 -0.057538677 -0.005414988 0.005181595 -0.012362648 0.11062789 0.08062964 0.034462553 -0.009603692 -0.18186818 -0.014206611 0.00035356506 -0.07177389 -0.016459396 0.07642868 0.011717551 0.04318435 -0.2244775 0.004499609 0.002430375 0.08011057 0.015569693 0.17469291 0.030050002 0.039042078 0.11229812 0.1551784 -0.038261015 -0.078520685 0.04045487 -0.004615194
